1633 64
_Corpse_Flower 0.0164802 -0.0448931 -0.0183647 0.0128877 0.0364083 0.0214834 0.0083823 0.0421443 -0.0213908 -0.0270512 0.00897618 -0.00468435 0.0118904 -0.0321083 -0.0300074 0.0229781 -0.0208382 -0.0315211 -0.043497 -0.0323345 -0.0431856 0.0267076 0.0203662 0.0037815 -0.0341501 -0.0468926 -0.0440917 -0.0295202 0.0105723 0.00401542 -0.0403629 -0.0283728 0.049651 -0.0390334 -0.00492101 0.0248354 0.00365361 -0.020183 0.0148317 -0.0343775 0.0182365 -0.0295421 0.0270519 -0.0152245 -0.0475816 0.0199158 0.0365628 -0.00360901 0.00927994 0.0235465 0.0298561 -0.00283445 0.000273775 -0.0333749 -0.0230072 0.0121991 -0.0023969 0.00705441 0.020038 0.0128355 0.0119163 -0.0443457 0.0221971 -0.0450787
_Deathseer -0.0704588 1.89925 0.58636 -0.289048 -0.0453791 0.65706 -0.883383 -0.713433 0.602662 -0.829268 -0.799544 -0.552357 0.143209 1.15152 0.721245 0.685289 -0.919637 0.264856 0.48064 -0.608086 0.253273 -0.252957 -1.25072 1.03151 0.389289 -1.20167 0.39307 0.986217 0.945896 -0.402642 0.542303 -0.392309 0.916892 0.344622 -0.895386 0.493054 -0.409953 -0.199484 -1.04508 -0.69489 0.201693 -0.499948 0.0433607 3.00758 0.291793 -0.593439 -0.191883 0.075612 -1.08008 0.272182 0.508257 0.0386145 0.447399 -0.179714 0.210797 1.06903 -0.237035 -0.741268 1.45885 -0.484509 0.768273 0.205478 0.282504 -0.758639
_Doom_of_Elwynn 0.0727592 -0.844732 -0.4162 0.613628 0.497116 0.563201 -0.482405 0.90241 -0.666121 0.0600267 -0.422603 -1.12851 0.138479 0.492572 -0.099606 1.06135 -1.12378 0.322008 -0.114621 0.818732 0.357836 -1.15761 -0.660725 0.31804 -0.00466795 -0.635909 -0.470807 0.382859 0.617439 0.109405 -0.150067 0.161857 0.26347 -0.482964 -0.831111 0.44223 0.932403 0.662007 -0.121349 0.530047 -0.802442 -0.196325 1.3952 1.35754 -0.88561 0.0205059 1.70125 -0.792063 0.254662 0.204733 -0.0607176 0.23148 -0.912414 -0.0770837 -0.102578 0.20156 -0.534376 -0.186761 1.299 -1.17449 -0.0769275 -1.00557 0.259571 -0.246363
_Dragonlord -0.0175509 -0.527724 -0.676592 0.616644 0.490645 0.785621 0.364398 -0.486616 -0.649033 0.284121 -0.0209769 -0.517211 0.439449 0.46016 -0.733799 -0.428051 -0.537222 -0.161566 -0.228275 0.515893 0.820118 -0.00373053 -0.290884 0.442318 -0.877206 0.450121 -0.853929 -0.870453 -0.695623 0.383069 -0.122268 0.754981 -1.6473 0.252627 0.21677 -0.381621 -0.708191 0.725983 -0.000754447 0.145945 -0.716438 -0.438846 0.25758 0.950234 0.335834 0.0420089 -0.306638 -0.145043 0.767893 0.651882 -0.432303 -0.153543 -0.216549 -0.098817 -0.183018 -0.106747 -1.20939 0.136582 -0.267306 -0.27322 0.172842 -0.497477 -0.177423 0.350246
_Fireblood 1.37818 1.15 0.0414621 -0.402167 0.689579 0.548096 -1.33345 -1.63839 -0.108362 -1.21922 1.17039 0.736217 0.120284 0.207968 -0.882042 0.542914 -0.642164 -0.777548 -0.633829 0.0116497 -0.117896 0.23882 0.082188 0.506479 -0.0405805 1.25984 0.527028 1.14813 1.13424 1.88385 0.831603 0.574285 1.71109 -0.540483 -0.878497 -0.326168 0.232763 0.285916 -0.0622214 0.694587 1.01687 0.0155314 0.657671 -0.0231812 2.47199 -1.06785 0.912209 -0.0250139 0.0986779 0.267219 0.246018 1.49786 1.03138 0.201254 1.71265 -0.331586 0.452167 0.698232 -1.54322 -0.369884 -1.46263 -0.335751 1.38728 0.454278
_Hope's_End -0.0967503 -0.685672 0.599526 -0.0133027 -0.364211 -0.231918 0.475313 0.111802 -1.77164 0.512026 -1.11968 -0.470535 0.131232 0.555061 -0.324628 0.360005 -0.554729 0.251523 0.362147 0.142979 0.193104 0.0113857 0.782847 -0.361566 -0.175409 -0.286234 0.777679 -0.568398 0.596379 0.507739 -0.409486 0.395798 -0.418624 -0.0138397 0.763999 0.454657 -0.655233 0.37509 0.211808 0.889308 -1.00536 0.784811 0.03907 0.219017 -0.469837 0.666303 -0.386777 -0.221755 0.294364 -0.245319 -0.791512 0.489056 -0.549904 0.112357 -0.0503959 -0.177338 -0.949166 0.717196 -0.227718 -0.843119 -0.133333 -0.403578 -0.526965 -0.838486
_INSECT! 0.00481368 -0.0118313 0.221835 -0.132638 0.346108 0.284578 0.846332 0.324564 -0.654023 -0.0773155 0.344369 -0.407123 0.323189 0.608822 -0.268315 0.541061 -0.437481 0.31702 -0.236345 0.214849 0.348547 0.488878 -0.831127 -0.367461 0.710039 -1.13781 -0.748528 -1.14046 0.997091 0.0229353 -0.376612 0.414009 -0.607744 0.0506114 -0.719551 -2.1594 0.169744 0.877192 0.0352674 -0.303396 -0.16105 0.248389 1.00785 0.152941 -0.0872431 -0.785643 -0.527384 -0.337092 -0.617706 0.94629 -0.0538341 0.759206 -0.592097 0.12771 0.37395 -0.0595122 -0.00959298 0.0973306 -0.505932 1.16337 -0.124455 0.424016 0.412747 -0.229677
_Jungle_Hunter 0.16095 -0.17628 0.319313 -0.0505223 -0.213415 -1.17464 0.296783 -0.631465 -0.322582 0.26005 -1.11772 -0.638416 -0.201647 -0.844464 -0.517101 1.10645 -0.79944 -0.289764 -0.178853 -0.319984 -0.260459 0.729464 -1.84165 1.03407 0.201633 0.541045 0.624766 -0.540461 1.06173 0.13758 0.0326332 0.806845 0.593733 0.257377 1.02752 0.675088 0.53433 -0.257479 -1.97636 -1.17202 -0.805115 0.169084 -0.371257 -0.14011 0.109783 -0.50867 -1.30274 1.18323 -0.409447 -0.186634 -0.860077 -0.599987 0.410066 -0.176128 0.438717 -0.99775 0.945165 0.397284 0.402553 -0.144063 0.115672 -0.14648 -0.126917 -0.530302
_Lightlord 0.234624 -0.142564 -0.319151 0.411987 -0.0164207 0.353412 0.0680297 -0.90965 -1.59232 -0.537826 -0.279536 -0.967844 0.24277 -1.00634 -0.557269 -0.396775 -0.894205 -0.396438 -0.436226 0.707382 -0.536387 0.463282 -0.626925 0.182517 0.423659 0.374022 0.0490312 -0.328743 0.719839 -0.19674 -0.585685 0.234487 -0.0691694 -0.608138 -0.58497 -0.121564 0.367791 -0.0319551 -0.375761 -0.580503 0.290976 0.898435 0.501459 -0.518934 0.830735 -0.217717 0.410813 0.53665 0.443115 0.669196 -0.0510248 0.525615 0.561512 0.0110904 -0.163092 -0.43469 0.836744 0.0384987 0.00957586 -0.925262 -1.32388 -0.66088 0.600949 0.80533
_Poisoned_Mind -0.843169 0.489849 1.06904 0.519512 -0.731511 -1.11814 -0.205096 0.385766 -1.19877 -0.375184 0.00902321 0.380839 0.487358 -0.28204 0.312007 -0.0409787 0.582369 -0.0489206 0.344522 -0.232261 0.365074 0.0395525 0.316629 1.04014 -0.285113 0.177463 -0.680604 -0.215799 0.823451 -0.167989 0.117403 0.757463 1.20133 -0.412336 -0.440512 0.389583 0.033829 0.622576 0.105158 0.00483871 0.599296 -0.51224 0.524675 0.822563 -0.390073 0.283605 -0.105451 0.257305 0.378404 -0.286417 0.367234 1.69673 0.186828 0.540514 0.64733 -0.815541 -1.10833 -0.306849 -0.521696 -0.794109 -0.935315 -0.368584 0.253972 0.637234
_Priest 0.0172591 0.00352282 0.00127036 0.0069018 0.00650775 0.0430648 0.0306943 -0.048166 -0.0103056 0.0443512 -0.00453725 0.0297356 -0.0427238 -0.0332118 -0.0126628 -0.000988435 -0.0386176 -0.0235923 0.0454456 -0.0320839 -0.00881236 -0.0297392 0.0303339 0.037292 -0.027058 0.0243936 0.0476533 0.0425184 0.0326145 -0.0278707 -0.0431156 0.00498927 -0.0413364 0.0165508 0.00090877 0.0464463 -0.0340593 0.0255849 0.0295455 0.000510585 0.00299295 -0.0109582 -0.026256 -0.0390465 -0.0263119 0.0180814 0.0233881 0.0445317 -0.0208851 0.0393317 -0.019571 0.0325058 -0.0281322 0.042834 0.0104479 -0.0491653 -0.0124349 -0.0352256 -0.0273359 -0.0406409 -0.00174103 -0.0174023 0.0258712 -0.0382595
_Primal_Lord 0.371473 1.49461 0.0440164 -0.00591685 -1.13292 0.60898 0.258704 -2.50997 -0.337861 0.289647 -0.715167 -0.0718906 0.464904 0.555209 0.0451395 0.265712 0.0307996 -0.858983 0.0141091 -0.379982 0.861616 0.755998 -1.61293 0.119317 0.51258 -0.492894 -0.0628984 0.239412 0.687356 1.6886 -0.233996 -0.572477 0.631549 0.0423221 -0.426178 0.465861 0.377509 -0.887561 -0.715366 -1.38772 -0.0563995 0.3508 -0.0581527 0.675703 0.0180093 -0.565559 -0.0328192 -0.374153 -0.694246 -0.196719 -0.0397247 -0.392648 0.0192135 -0.521464 1.34786 -0.0343157 -0.584038 0.373207 0.261206 -0.289175 -0.41309 1.26899 0.232395 0.321407
_Rage_Unbound 0.766928 0.553694 -0.246865 0.26316 0.261422 0.296759 -0.427535 -1.4423 -0.541685 -0.653862 -0.48981 0.312707 0.392749 0.36614 -1.38878 -0.294686 -0.286867 -0.625422 0.761289 0.14024 1.86663 0.0408559 -0.0777654 0.244123 -1.87832 0.273999 -0.138471 -0.504594 -0.413208 0.347081 -0.321027 0.187436 -0.998478 0.535034 1.29381 0.275174 -0.000884243 0.629202 -1.68838 -0.239038 -0.179853 -0.453856 0.415112 -0.0502172 -0.0538709 0.911598 0.352173 -0.0943744 -0.0306954 -0.33311 -0.225055 0.141787 0.167452 0.412167 -0.392264 -0.505353 -1.05984 -1.19045 0.14171 -1.28014 0.539479 -1.15114 -1.82004 -0.282444
_Seed -0.0240425 0.0477766 0.0407366 0.00371812 0.0256365 0.0197921 -0.0252997 0.0407532 0.015061 0.0184697 0.0296977 -0.0371783 0.00369588 -0.021352 -0.00562284 -0.00499327 -0.0258327 -0.0298595 0.00669228 -0.0334277 0.0421343 -0.0452435 -0.0138032 0.0207617 0.0261867 -0.0169684 0.0174023 0.0390508 0.0324587 0.0464822 0.0349245 -0.0499859 0.0187808 0.0184022 -0.00617626 -0.0252106 0.025698 -0.00573766 0.033808 -0.0121309 0.0224667 -0.0423822 0.0196932 0.032893 0.0418374 0.0139071 -0.0406035 -0.0150578 -0.0292365 0.0178985 -0.00922489 0.0405213 0.0298196 -0.048811 -0.0231132 -0.0427193 -0.0445285 0.0285017 -0.0307947 0.00773641 -0.00235721 -0.0422519 0.020777 0.0499956
_Tyrant_of_the_Vale 0.555998 -0.735857 1.08975 1.02713 0.260012 0.378041 0.837953 -0.591453 -0.956881 0.580998 0.123169 -2.08813 -0.811921 -0.747765 0.728251 -1.44846 1.14852 -0.483077 0.787787 -0.390023 1.16886 -1.79678 -0.209578 0.228794 0.200683 1.23252 -0.150692 -0.617654 0.1335 -0.744527 -1.09159 0.0212926 -0.412545 0.384632 0.692466 -1.63606 1.13087 0.968812 0.366013 -0.577141 -0.679227 -0.109327 0.00653351 0.179536 -0.236258 1.76906 -1.2872 0.309166 0.489921 0.549191 0.335685 0.724884 0.154791 -0.897522 -0.54322 -0.694492 -0.277617 -0.801488 0.543901 -0.184007 -0.514164 -0.62858 -0.0838211 -0.235886
_Warden_of_Hope 0.143357 0.10568 0.175716 0.173589 0.354174 0.0154386 -0.227844 -0.028557 -0.806151 -0.47188 0.322941 0.886685 1.96702 0.835569 -1.21618 0.054928 0.215511 0.365398 0.162795 1.05242 0.933157 -0.243743 0.219774 0.545667 0.144995 0.352802 -0.00154873 -0.879931 1.04491 -0.89666 -0.310266 0.417278 0.361623 -0.505863 -1.64721 -0.940114 1.1746 -0.36344 0.56877 0.109789 0.662397 -0.293155 -0.867487 0.0468113 0.343811 0.207902 0.835742 -0.584463 -0.366643 1.04817 0.292702 0.270357 -0.844838 -0.0167322 1.03079 -0.158325 1.1812 -1.46138 -0.565873 0.875286 0.219498 1.08534 0.00620367 -0.0554298
_the_Collector 0.0785527 -0.404053 1.07644 -0.444524 -0.703468 -0.0372504 0.530351 -1.41435 -0.0431537 -0.0905006 0.584421 0.181407 -0.339323 0.278455 0.402971 1.35813 0.252107 -0.415684 -0.104416 -0.349546 0.237328 -0.184018 0.0299269 -0.281418 -0.585793 0.816058 0.255313 0.554799 0.94636 0.369273 0.334834 -0.255893 0.926309 0.706377 -0.541662 0.968256 0.494678 0.631574 -0.00121071 -0.27502 -0.217694 0.554358 0.199659 0.662842 -0.417975 0.523935 -0.247446 0.630908 0.629468 -0.418925 -0.533146 0.709777 0.141589 0.0963463 0.644533 0.150169 -1.07731 -0.0723982 -0.962034 -0.584171 -0.136 -0.0857374 0.632851 -0.665214
_the_Corruptor -0.273868 -0.0225382 -0.224847 0.610254 0.00315047 0.161039 -0.811066 -0.411154 -1.59243 -0.687868 -0.215589 -0.100535 0.185552 0.0725256 -0.635896 0.73542 -0.227695 -0.453542 -0.225013 -0.559737 0.402686 -0.158028 -0.0900097 0.489185 0.440111 0.925557 -0.597272 -0.85628 0.917294 0.27572 -0.122444 0.93083 -0.798625 -0.563439 -0.228342 -0.609158 0.29276 0.685274 0.0695625 0.454494 -0.364922 0.476961 -0.108028 -0.208301 -0.249808 -0.287355 0.0647729 -0.173925 -0.170171 -0.467231 0.341477 0.021275 -0.828787 -0.182791 0.484717 -0.474544 0.641044 -0.80272 -0.0800661 0.729457 -0.189045 -0.139078 -0.234526 -0.192875
_the_Darkfisher -0.829737 -0.875066 -0.809402 0.78542 1.31304 0.0685065 -0.080286 0.588028 -0.46179 0.221528 0.862908 -0.592781 0.472277 -1.14241 0.705967 1.82527 -0.489476 -0.0698794 0.66101 0.690226 0.705726 -0.727731 0.455504 0.557002 0.493806 -0.318254 -0.495006 0.964812 1.3825 -0.51141 0.509678 0.292466 0.64242 -0.00475343 0.308241 0.215814 1.23423 -0.259794 0.576673 0.248085 -0.257694 -0.40927 0.0170184 0.354859 -0.0993307 0.0679711 1.4967 -0.614729 -1.06639 -1.28323 -0.42215 1.24027 -0.470023 0.641632 -0.29988 0.341627 1.11354 -0.491871 -0.241869 -0.908183 0.853987 -0.408297 -0.612257 0.619675
_the_Flying_Star -0.621614 0.255381 0.0146463 -0.449251 0.140408 1.32951 -1.20118 0.21712 0.656883 -0.688308 0.211914 -0.722494 -0.328885 -0.0505602 0.404653 0.261816 -0.0180286 -0.273554 -0.538633 -0.390422 0.0171147 -0.436474 -0.296548 -0.101318 0.444006 1.0469 0.848063 -1.03016 0.135121 0.119252 -0.558936 -0.256319 -0.0612269 0.350715 0.674707 0.338626 -0.0509291 0.742274 -0.437474 -1.39416 0.52642 0.499469 0.664505 -0.219542 0.252456 -0.29681 0.2115 0.837199 0.223721 1.07238 -0.646048 0.568817 1.01976 -0.272002 0.67768 0.059172 -0.324978 0.412385 0.747875 -1.05405 -0.676706 0.0852429 -0.479806 -0.023258
_the_Guardian -0.0415875 -0.601084 1.02868 -0.428403 -0.181309 0.166647 0.832342 -0.214844 -0.731484 -0.381006 0.387757 0.18834 0.320408 0.171165 -0.820696 -0.376197 0.426127 0.792758 0.180891 0.55146 0.788757 1.06673 0.142006 0.392961 0.0597609 -0.344607 -0.111872 0.16532 0.154491 0.233673 -0.730035 0.359741 -0.293271 -0.0268605 0.263362 -1.1069 -0.321956 0.547118 0.175961 -0.317059 -1.11879 -0.290205 0.238657 0.111267 0.416155 -0.118929 0.866159 0.263327 -0.0693216 0.857538 0.0510765 -0.122614 0.422106 -0.40108 0.0962489 -0.470676 -0.380979 -0.0441978 -0.406761 -0.686075 0.755953 -0.392929 -0.364723 -0.346574
_the_Shark -0.644193 -0.331014 -0.0648283 0.492101 0.168313 -0.0572715 -0.587791 0.616993 -0.0174312 0.0528776 0.0188393 -1.06537 -0.914641 0.419709 0.412609 0.595786 0.63642 1.33092 -0.173429 0.00647924 0.989169 -0.3002 0.186366 -0.178743 -0.295324 -0.546808 0.337809 -0.939817 0.0100678 0.0375638 -0.245486 1.59795 0.620646 -0.0607799 0.864698 -0.0837492 0.138655 -0.370972 -0.233986 -0.946714 -0.950203 -0.0882726 0.798771 0.67902 1.21739 -1.40679 0.0192748 0.517134 0.475297 -0.0796298 -0.028569 0.602026 0.0153685 -0.23166 0.43486 0.380356 0.341265 -0.71626 -0.381321 -0.164828 -0.607679 0.245908 0.940043 -0.353152
"Little_Friend" -0.0209617 0.0370752 0.0229353 0.0331893 -0.0390407 -0.0404243 0.00708612 -0.0482192 0.00676047 -0.00989386 0.0223301 0.00696769 -0.0258614 -0.0204652 0.00827472 0.0220312 -0.0341184 -0.0478869 -0.0334851 -0.0366877 -0.00820289 0.0244645 0.0212326 0.0498374 -0.0160282 0.00988939 0.0193901 0.00202082 0.0212687 0.0315109 0.00656781 0.0216009 -0.00121458 0.033167 0.0309709 -0.00880188 0.0184387 -0.0308149 -0.0432261 0.0380155 -0.0382634 -0.0355643 0.00621432 -0.0276426 -0.0208797 -0.00209265 -0.0170048 0.0124734 0.0358836 0.0236431 -0.0031391 -0.00387551 0.0336884 -0.0414788 -0.00734755 -0.00473953 -0.00553502 0.0274173 -0.0180933 -0.0176184 -0.00247539 -0.0226143 -0.0206057 -0.0258159
'Inspired' -0.899188 -0.802249 0.854996 -0.17291 0.761157 -0.778064 0.799926 0.74591 -0.284723 0.738895 -0.511632 -0.816384 0.152216 0.44222 0.335466 0.60701 0.575427 0.85351 0.889636 -0.764212 0.86652 0.874949 0.871422 -0.00176849 -0.607563 -0.103772 0.833149 0.836308 -0.716372 0.854366 -0.858193 0.85924 -0.844356 0.811228 0.818093 -0.700774 0.830365 -0.0324183 0.850258 0.813437 -0.850975 -0.398477 -0.813376 0.504686 -0.88156 0.785155 0.894644 0.0639881 -0.820727 0.490034 -0.846484 0.817838 0.835669 -0.857804 -0.890091 -0.802173 -0.507829 -0.687713 -0.693716 -0.780659 0.813505 -0.792653 -0.649517 -0.763162
A_Light_in_the_Darkness 0.922557 -0.319172 -0.378782 0.364654 0.384548 0.0446617 -1.34081 -0.688043 -0.869883 0.249837 1.00885 -0.017887 0.546374 -0.706909 0.0149442 -0.60171 -1.36289 -0.295731 -0.479201 0.11191 -0.492962 0.506296 -1.05736 0.367607 0.573629 0.381314 0.167904 -0.0905711 0.651231 -0.49 -0.28662 0.106612 0.34723 -0.52883 0.293594 -0.370953 0.0823302 0.654325 0.980298 -0.640098 0.45316 -0.0864598 0.307765 0.128832 0.209716 0.367242 -0.412483 0.448117 0.794782 -0.108135 0.289482 1.14056 0.345772 0.477898 -0.882277 -0.136847 0.346131 0.710761 0.635749 0.398623 -0.677938 -0.377272 0.774664 -0.0711722
AFK -0.821274 0.723914 0.842252 -0.872053 -0.837265 -0.882258 0.492686 -0.857886 -0.38471 0.597182 0.852466 -0.818661 0.883323 -0.631579 0.78919 0.81372 -0.813541 0.130191 0.835932 -0.903388 -0.405387 -0.887229 0.84769 -0.67574 -0.811884 0.773769 -0.881406 0.788362 -0.554123 0.807246 -0.824617 0.359969 0.897583 -0.343933 -0.800631 -0.911609 0.691236 0.701933 0.911626 -0.689379 0.341637 0.874274 -0.884096 0.173366 -0.906962 0.908221 -0.884995 0.804502 0.774817 -0.86836 0.378241 0.754407 0.886496 0.561188 -0.146855 -0.865694 -0.811992 0.48756 -0.706114 0.587561 0.476621 0.858864 -0.612209 0.68755
Aberrant_Berserker -0.410084 0.516754 -1.05752 -0.367312 0.379657 0.439337 -0.604816 0.857305 0.751661 -0.442561 1.16165 0.0849466 0.801478 -0.663687 -1.21661 -0.446517 -0.352857 -0.526233 -0.153391 0.176077 0.274169 1.32005 0.222911 -0.250252 0.208922 -0.872552 0.343859 -0.141512 0.530951 0.39987 -0.0253495 -0.0319686 -0.257181 -0.0504632 0.154476 0.440272 0.444671 0.126854 -0.082143 0.0994808 -0.245546 0.018708 -0.302002 -0.588528 -0.563767 -0.0360582 0.393688 -0.891692 -0.289067 -0.165871 0.540178 1.22142 -0.0843005 0.457813 -0.269634 -0.829367 0.242769 0.00310333 -0.914657 -0.196606 -0.0689962 0.731977 1.19267 0.73903
Abominable_Bowman 1.00375 0.709087 0.547043 -0.431721 -0.261901 -0.797223 1.21361 -1.31616 -1.49829 -1.66405 -0.449014 0.100308 -0.186659 0.531314 0.372955 0.509915 0.266062 0.598058 0.15733 -0.808545 0.707707 -0.0309684 -0.195582 0.603638 0.223819 0.980659 -0.190966 -0.160467 0.518388 -0.0608834 0.580538 0.36267 -0.596015 0.171119 0.121369 -0.966361 0.861453 -0.428068 0.136582 -1.458 0.0510252 -0.29725 -1.41493 -0.165631 0.338214 0.122915 0.244468 0.573065 -0.258948 0.270483 -0.201441 -0.905397 0.751074 -0.434006 0.0796477 -0.203353 0.637458 -1.19639 -0.646996 0.687777 -0.0412644 0.238446 0.42503 -0.676973
Abomination 0.234864 -0.383234 0.0678606 -0.0785579 0.505244 -0.409487 0.0497581 -0.854767 -0.0572291 0.0650386 0.313126 -0.368849 0.624834 -0.286594 0.290123 1.26358 -0.509898 -0.0414834 0.0766773 -0.262804 0.367073 -0.27493 0.158848 0.314768 1.03397 0.132589 -0.38614 0.409106 0.905207 -0.218643 -0.332022 1.08394 0.020239 -0.187383 -0.198385 -0.390224 0.0782556 0.431367 0.443033 0.967959 -0.212297 -0.465866 -0.155167 -0.662059 0.342606 -0.509304 0.574506 -0.750252 -0.487065 0.549264 -0.761441 0.8109 -0.367596 0.397273 0.265054 -0.624514 -0.407766 -0.816221 0.643917 1.0177 -0.264869 0.325329 0.747494 -0.085762
Abusive_Sergeant 0.121306 -0.164561 0.245593 0.364367 0.153791 0.574324 -0.803299 0.158885 1.2833 -0.662127 -0.228436 -0.499405 0.55582 -0.180349 -0.46252 0.753828 -0.404901 -0.285085 0.205878 -0.645555 -0.259426 0.15282 0.557474 0.435431 -0.859713 -0.184214 1.25996 -0.626446 -0.0108842 0.284839 0.276876 -0.185047 -0.377902 0.36022 -0.0617955 0.107036 -1.06643 -0.988275 0.0181218 -0.236742 -0.402922 0.202844 0.0324292 -0.20407 -0.505481 0.654746 0.17197 0.38375 0.198895 -0.375109 0.0174182 1.18767 0.885153 0.174053 -0.667029 -0.5982 0.375274 -0.780066 -0.0575344 0.624181 -0.12572 -0.00161563 0.360053 0.524147
Abyssal_Enforcer -0.743328 0.456286 0.579904 -0.838911 0.863149 0.679551 -0.382817 -0.14798 0.170532 -0.196469 0.352906 0.297588 0.814172 0.224758 -0.632819 -0.0213616 -0.119928 -0.692173 0.427531 -0.550833 0.197103 -0.459307 0.681094 0.0889159 -0.697627 -0.941095 -0.541683 0.595206 0.36425 -0.418852 0.0206863 -0.510898 -0.583498 0.253193 0.418901 -1.02762 0.462325 1.39774 0.0633062 -0.662557 0.0672912 0.958827 -1.01895 -0.026875 0.257695 -0.274185 1.03591 0.385719 -0.940742 0.200569 0.353047 0.54277 0.298712 -0.567915 -0.327661 0.403481 0.58918 -0.363674 -0.165068 -0.588522 -0.374726 -0.804703 -0.322871 -0.177856
Acherus_Veteran -0.041609 0.970345 0.504269 -0.817097 0.171088 0.0322622 -0.0478005 -0.511408 0.961043 -0.496531 0.495647 0.288855 -0.873757 -0.0552484 -0.546191 0.631564 -0.369292 0.910557 -0.0389734 0.430931 -0.844189 0.259683 1.23272 1.27481 -0.593695 -0.135135 2.44365 0.917538 -0.225472 1.56149 0.519181 -0.801547 0.479528 -0.144704 0.623519 -0.297595 -0.588972 -0.383643 -1.28646 -0.769139 0.515713 -0.0324787 -0.597312 -0.547578 0.430735 -0.670471 -0.0761995 1.1397 -0.101432 0.314698 -0.136973 0.875791 1.20218 -1.01793 0.0233862 -0.414971 -0.000425519 -0.602851 -0.474513 0.420416 0.141194 0.786139 0.491423 0.293852
Acidic_Swamp_Ooze -0.221632 -0.492171 0.387787 -0.101971 0.102741 0.284649 0.309133 0.687804 0.250465 -0.142423 0.352219 -0.0818979 0.153419 0.0364006 -0.386637 0.404238 -0.392591 0.234542 -0.342733 0.00532107 0.239 0.0752001 0.162973 0.102492 -0.926283 0.0407082 -0.787446 -0.178362 0.331848 -0.0573187 -0.324686 1.04308 -0.254329 0.801319 0.260131 0.0376198 0.204434 0.318888 0.379305 0.198187 -1.08036 0.150948 -0.292722 -0.277963 0.0786616 -0.280954 0.285349 0.0564091 0.0649541 0.32554 -0.0522265 -0.570791 0.391324 -0.450807 -0.14317 -0.236902 0.035269 0.58372 -0.325473 0.412091 -0.5075 0.302882 0.0877497 -0.107087
Acidmaw 0.316834 -0.353841 -0.0493835 0.197281 0.0627165 -0.437186 -1.56112 -0.230248 -2.20354 0.0142514 -0.387064 -0.322843 0.737931 -0.0506243 0.186923 0.205729 0.0603186 1.14774 -0.16721 0.258015 -0.493331 0.282009 -0.151642 -0.0256979 -0.456005 1.2714 -0.0941755 -0.00830246 0.629579 -0.55661 0.404771 0.509577 0.0641796 -0.514945 1.37572 0.360069 -0.318193 0.452433 -0.228031 0.758675 0.13238 -0.0361565 -0.00604923 -0.435447 0.0220824 1.26811 0.096875 0.0432306 0.0323956 -0.0246911 0.58489 0.744811 0.353277 0.273858 -0.462769 -0.859167 -1.56479 -1.74468 0.480689 -0.901567 -0.0275014 0.348731 0.319205 -0.114457
Acolyte_of_Agony -0.0917422 0.755169 0.868945 -2.9007 0.467163 -0.9862 1.17657 -1.14105 -0.906 -1.04903 0.485136 1.06485 0.907573 -0.409716 -0.216375 -0.735283 0.457013 0.703338 0.336538 0.275657 0.648599 1.44314 0.141148 -0.368024 -0.150114 -0.117501 -1.01283 0.362608 -0.196417 1.03855 0.169956 0.0319765 -0.499098 0.996481 -0.522003 -1.43818 0.987201 0.889909 0.164704 -0.249484 -0.127973 0.0260327 -1.58338 0.109299 -1.51046 -0.211505 1.00757 0.267357 -0.724157 0.120933 -0.349506 0.033678 -0.122239 -0.168351 0.38862 0.380088 -0.104083 -1.48744 -1.44002 -0.104267 0.946119 0.470719 -0.0508487 0.138974
Acolyte_of_Pain -0.58771 0.0946384 0.0517975 0.327997 0.456025 0.576848 0.115149 0.957002 -0.978659 -0.0386697 0.138034 0.331541 0.782595 -0.618235 -0.575221 -0.208102 0.138006 0.296675 -0.956104 0.973666 0.329629 0.253008 -0.696138 -0.496376 0.415225 0.190673 -0.0566153 0.000983837 0.0846109 0.74139 -0.52992 0.0880623 0.405496 0.577124 0.28647 0.0758546 0.218608 0.107321 -0.0811205 -0.391318 -0.520792 -0.0577273 0.265666 -0.40542 -0.587507 0.247062 0.00702101 -0.820542 0.165692 -0.702921 -1.07674 0.522916 -0.517805 0.100676 0.244091 -0.194785 0.615868 0.13986 0.216789 -0.1141 0.107832 0.552067 0.223067 -0.0932864
Adaptation 0.718263 0.00695522 -0.204154 -0.670384 -0.23104 1.2697 -0.99167 -0.865687 -0.240409 0.14764 1.26661 0.0828677 0.729881 -1.59327 0.248693 -1.21316 -1.26681 -0.373814 0.351184 0.0947547 -0.504861 0.592392 -0.419039 0.424654 -0.0696675 0.308694 1.4355 -1.27835 0.78005 0.519868 0.0895104 -0.765117 0.915987 -0.246867 0.344891 -0.269017 0.111187 0.190576 0.155165 -0.615794 0.0582988 -0.358905 0.397886 -0.0632838 1.56437 -0.568506 -1.22385 0.349165 1.40178 0.945414 -0.385892 0.197184 0.684557 0.0703112 0.48396 0.448034 0.832301 0.392758 -0.377632 -0.569221 -0.451949 0.0102074 0.57862 1.68526
Addled_Grizzly 0.0981903 -0.624367 1.11733 -0.161578 -0.0569655 0.194914 -0.164227 0.122965 0.177215 0.906614 0.828661 -0.889575 -0.829739 0.233975 1.27442 -0.686938 0.278469 0.631503 -0.620315 0.208758 0.615697 -0.955739 0.150523 0.244173 -0.266669 0.266794 0.496148 0.0620991 -0.187147 0.228225 -0.0109917 0.414739 -0.334197 0.292644 0.649263 -0.276879 0.505193 0.343055 0.402482 -0.547202 -0.164839 -0.225054 -0.930886 0.330259 0.000550932 -0.26389 -0.372312 0.660467 0.638773 -1.16923 0.448925 0.602247 -0.771183 0.0172022 0.0239216 -0.366367 0.206078 -0.506969 -0.702533 0.151012 -1.13177 0.0949606 0.180492 0.393503
Air_Elemental 0.240914 2.81007 0.537019 0.725528 -0.34416 -0.273253 -0.258257 -1.24679 -0.881445 -0.260943 -0.682941 0.469965 1.21617 0.443629 0.314245 -0.366126 0.0534706 0.042347 0.146196 -0.280984 0.967465 0.589005 -0.00315247 -0.0108259 1.124 -0.180942 -0.0568878 -0.506352 -0.0622622 -0.00390948 0.357523 1.16496 -0.465373 0.571629 -0.164278 0.285677 -0.00256683 -0.369181 -0.505064 0.292305 -0.426671 0.232107 -1.7175 0.409264 -0.642536 -0.496294 0.407853 0.0651632 -0.014512 -0.162239 0.207218 -0.58516 0.183099 -0.830282 0.120342 -0.513344 -1.24393 0.622128 0.151236 -0.250427 -0.153165 -0.984481 0.64129 0.435834
Al'Akir_the_Windlord 0.245112 0.52269 0.587462 1.04686 -0.717823 0.165588 -0.689807 0.0671051 -0.527139 -0.584303 -0.689855 -0.228164 0.235269 0.596437 -0.085385 0.413672 -0.320394 -0.506424 -0.205897 -0.0255176 1.03925 -0.33242 -1.21076 0.484969 0.964774 -0.338168 0.632673 -0.179872 0.131849 0.0247437 -0.129104 0.176812 1.11082 -0.23382 -0.23897 -0.214071 0.547471 -0.297009 -0.613845 0.273947 -0.376067 0.296387 0.237917 1.59566 -0.236408 -0.0288958 1.55865 -0.300808 -0.760027 0.0617746 -0.309407 0.11044 0.580487 0.404477 0.00393977 -0.261163 -0.858008 0.551832 0.692871 0.00448425 -0.672055 -0.423483 0.0397504 0.255222
Alarm-o-Bot 0.877127 -0.245833 0.437725 -0.308539 0.48521 1.17429 0.525811 -0.352525 -0.0812282 -0.37605 0.461198 -0.13325 -0.0340801 0.00261599 -0.871876 0.523897 -0.880531 -0.448284 -0.572826 0.221468 0.108398 -0.910053 -0.138647 1.75531 -1.62567 -0.353929 -0.835112 0.512799 0.0287905 -0.727077 -0.335899 0.404551 -1.4538 0.261452 1.16295 -0.0725682 -0.255818 0.168668 -0.280825 0.319768 0.375733 -0.239233 -1.46099 -0.0281876 0.854602 -0.28593 -1.57028 -0.289892 -0.460889 -0.241865 0.30057 0.850787 -0.869832 -0.108048 -0.0469952 -0.499287 -0.227879 -0.994863 0.165659 -0.307493 0.42874 -0.39754 -0.346107 0.402054
Aldor_Peacekeeper -0.093687 -0.134222 -0.381885 0.0969181 0.595019 0.231836 -0.18559 -0.611252 -0.705443 -0.017414 0.621112 0.122126 0.35008 -0.830848 -0.194292 0.215547 -0.908079 -0.0831634 -0.188358 1.47605 -0.2443 0.363819 -0.922611 0.328617 -0.0277625 0.17663 0.20645 0.126184 0.808361 -0.535128 -0.00184881 0.108718 0.348598 -0.389843 -0.146314 0.496843 0.103591 0.367942 -0.318497 0.264689 0.468836 0.209779 0.411638 -0.843293 0.647114 -0.251779 0.63627 0.668093 0.336626 0.450515 0.574743 1.23874 0.424969 -0.260094 0.665364 0.0477008 0.112482 0.603317 0.24382 0.021808 -0.925064 0.231121 0.732865 0.866433
Alexstrasza -0.268537 -0.204664 -0.0244153 0.145113 0.513567 0.376058 -0.0973186 -0.36975 -0.989567 0.216423 -0.105609 -0.60022 -0.105472 -0.368484 -1.26354 0.0971691 0.411947 0.207128 0.603272 0.0770758 0.550637 0.865972 -0.0903586 -0.216604 0.454338 -0.679615 -0.209897 0.223505 0.281257 0.0699814 -0.735767 0.0633486 -0.877562 0.596014 0.311735 -1.33991 0.603088 0.608705 -0.67572 -0.361673 -0.800623 -0.344013 -0.316479 0.441962 -0.635015 0.0782236 0.185425 -0.181926 -0.339502 -0.0355667 -0.00963522 0.246425 -0.237756 0.0169301 -0.191275 0.489473 0.2377 0.140263 -0.180962 -0.294943 0.107018 -0.936502 0.0212472 0.00127677
Alexstrasza's_Champion -0.408529 -0.42708 -0.719561 0.508913 -0.0797164 0.469719 0.111792 0.653674 -0.108261 -0.468552 1.43559 -0.929084 -0.126146 0.503399 -0.535818 0.280095 -0.437728 -0.296392 0.403126 0.628792 -0.439049 -0.212794 -0.632305 -0.113186 -0.358508 -0.651833 -0.37791 0.505326 0.228339 1.56815 -0.316564 0.210055 -1.01949 -0.867328 -0.866329 0.371255 -1.08527 0.570656 0.0217823 -0.00655882 -0.121762 -0.236039 -0.197798 0.961236 -0.519184 1.90173 -0.85187 0.435911 -0.488887 0.0594694 0.498033 1.47413 -0.4383 -0.310467 0.495297 0.138013 -1.03859 0.0410589 0.580149 -0.0846184 -0.209523 0.780002 0.350232 -0.0305111
Alleria_Windrunner -0.0211017 0.0444174 -0.040986 0.0492204 -0.0140362 -0.00728295 0.0168191 0.0344338 -0.0212256 0.0192754 0.00135622 0.0157609 0.0155124 -0.00833238 -0.00403578 -0.013023 -0.0451695 0.0249529 0.0424328 0.0412911 -0.0106738 -0.032982 -0.0238431 0.0281848 -0.0147083 -0.011757 0.0375317 0.0398467 -0.00343659 -0.0201532 -0.0430689 -0.0282168 0.0225559 -0.0205808 -0.014023 0.0190587 -0.00932114 0.0462384 -0.000869621 0.0266688 0.0459043 0.0182003 0.0141122 0.0136006 -0.0483198 -0.0400579 0.030312 0.032538 0.040939 -0.028595 0.00529243 -0.0167508 -0.0452379 0.0237052 0.0256426 -0.0379758 0.0448442 0.0182167 0.0285878 -0.00997572 -0.028765 -0.0331613 -0.00847539 0.0278817
Alley_Armorsmith -0.265769 0.969813 -0.673806 0.41855 0.422904 0.183851 0.296593 0.206402 -0.831073 -0.623939 0.946861 0.0692178 0.869935 -0.708681 -1.08556 -0.273061 -0.681303 -0.00476024 -0.271152 0.613708 -0.0352458 -0.983675 -0.416718 -0.516763 0.310126 -0.658862 -0.23233 0.525961 0.157901 0.538513 0.293524 -0.326039 -1.03006 0.0186503 -1.19031 -1.48436 0.113454 -0.315072 0.0551262 -0.899479 0.668142 -0.0357372 0.411277 0.436636 -0.0408231 -0.543342 0.260103 -0.577236 -0.05788 -0.635322 0.357437 0.743426 -0.88998 -0.374042 0.818303 0.78789 -0.673719 0.0282346 0.499727 -1.58232 -0.345345 0.810857 0.563341 -0.299471
Alleycat 0.672828 1.00547 0.807446 0.483918 0.494985 0.614657 -0.582685 -0.803368 -0.382565 0.286164 0.733198 -0.351841 -0.537463 -0.32035 0.454472 -0.393777 0.807826 -0.112226 0.883761 1.31408 -0.31711 -0.49315 -0.906051 0.44558 -0.712246 -0.779987 0.704527 0.13586 0.640137 0.994804 0.784337 -0.352574 0.00763338 -0.868426 0.417218 -0.843489 -0.269286 -0.523541 0.66901 -0.715876 -0.174402 -0.452211 -0.8819 -0.384235 0.406701 -0.593932 -0.0483713 0.394401 0.0979165 -0.444827 0.486664 0.566404 0.63676 -0.446164 -0.585604 0.0542225 0.334598 -0.426279 -0.129075 0.117511 -0.980965 0.16338 -0.87057 -0.53747
Am'gam_Rager -0.798011 -0.0522424 -0.540658 0.322182 0.893688 0.70903 0.210346 0.875016 -0.882137 -0.662987 0.839959 -0.0183961 0.796025 -0.884115 -0.80236 0.729079 -0.186123 0.741381 0.845714 0.872007 0.834986 -0.8068 -0.73072 -0.788576 -0.831374 -0.886351 -0.822342 0.879587 0.214202 0.806195 -0.724937 0.0434401 -0.812472 0.655006 -0.0696889 -0.859231 -0.765326 0.793441 0.820851 0.762921 -0.521454 0.652178 0.853713 0.771974 -0.851884 -0.740992 -0.80851 -0.817311 0.803954 -0.705764 -0.818938 0.843004 -0.864977 -0.661047 0.603137 0.00455983 -0.62632 -0.659691 -0.209543 -0.879161 0.124568 -0.247366 0.859215 0.344378
Amani_Berserker 0.591408 -0.508717 0.135771 0.543345 0.614322 0.237499 -0.0871141 0.430231 1.49429 -0.191906 0.23621 -0.836373 -0.110172 -0.604105 -0.32965 -0.443845 -0.955479 -0.26907 -0.339498 -0.0949477 0.189817 0.163027 0.117184 -0.209456 -0.311942 -0.00929879 0.0882378 1.71365 0.185295 0.0405001 0.00212124 0.478257 0.434294 -0.180839 0.372835 0.956713 0.0858235 -0.901588 0.408491 -0.0749924 -1.22262 0.593318 -0.168683 0.442917 -0.539526 0.88243 -0.0966508 -1.0074 0.236862 -0.366605 -0.428615 0.00349061 -0.0266543 -0.201659 -0.0529575 -0.861089 0.0708801 -1.16194 -0.295876 0.0608779 -0.15445 1.91529 0.0721355 -0.382764
Amara 0.449923 0.412875 0.529303 0.304386 0.568508 0.640842 0.651061 -0.84517 -1.01409 -1.32143 0.365586 -0.0210308 0.647257 -0.15149 -2.13451 0.221374 -0.551274 -0.231984 -0.317986 0.897418 0.59801 0.233907 0.160086 0.563901 1.325 0.951476 -1.00013 -1.0999 0.772571 -0.631732 0.12091 0.130159 0.505596 -0.723149 -1.73944 -1.01956 1.39403 -0.486244 0.513657 -0.225272 0.0667877 0.150542 -0.29019 0.316885 -0.175191 0.23193 0.0944473 -0.561964 -0.641845 0.714557 -0.25231 0.405272 -1.15088 0.0549573 0.648323 -0.501468 1.0669 -0.349141 -0.122959 0.231162 -0.318505 0.866769 0.576655 -0.813777
Ambush! -0.0166866 0.00264148 -0.0192476 0.0398429 0.00685101 0.0449148 0.0347672 -0.016395 0.0144451 0.0202432 0.0287113 0.00838264 0.0379563 0.039506 -0.0090014 -0.00915967 -0.049227 0.0278139 0.0459406 -0.0371286 -0.0149982 0.0406426 -0.0351677 0.0317215 0.0306694 0.0432334 -0.046498 0.0139129 0.0159615 0.016506 0.0271535 0.0102371 0.0118858 -0.0197208 0.0170335 0.0197467 -0.0206529 0.0236441 0.0207147 0.0322442 0.0371857 -0.0132674 -0.0322319 -0.0237862 0.0156886 -0.0272869 -0.0374612 -0.0447224 -0.0133995 -0.00364829 -0.0392866 -0.0095391 0.0180232 -0.0087431 -0.000552107 -0.0309211 -0.0409082 -0.0170485 -0.00879148 0.0195516 0.0150928 0.0141448 0.0221443 -0.024688
Ancestor's_Call -0.784361 0.454306 0.200665 1.03198 -1.01855 0.177202 -1.89871 -1.06726 -0.382811 -0.121124 -0.534222 0.742007 0.234366 0.29678 0.0310715 0.603926 0.424909 0.710089 1.23924 -0.7011 2.19871 0.0821683 -0.201249 -0.199199 0.472578 -0.247981 -0.470395 -2.79669 0.255463 -0.280258 -0.0784224 -0.0651331 -0.21756 0.45614 -0.676705 0.451103 -0.721636 0.137552 -0.759339 0.541664 -0.133274 1.34167 -0.325805 1.69361 0.883898 1.35982 -0.361693 -1.10767 1.52284 -1.09201 -1.63302 -0.262367 -0.614063 1.05825 0.573572 -1.05788 0.0300124 -0.35739 0.752664 -0.810239 -0.426389 -0.735392 -0.980101 -0.0863236
Ancestral_Healing -0.128025 -0.413027 1.45861 0.872387 -1.59162 -0.25608 0.0256417 -0.592861 -0.238295 0.399805 1.14771 -0.256225 0.513491 -0.203813 0.856253 -0.622614 -0.126131 0.717743 0.465642 -1.08126 0.563071 -0.495171 -0.469977 0.436105 -0.110399 -0.101346 -0.384181 -0.289991 0.688471 0.937101 -0.784972 0.282138 -0.598921 0.871478 0.278759 -0.191815 -0.597166 0.0193482 -0.48313 0.568054 -0.105974 0.189582 -0.855425 0.784894 -0.178476 0.254554 -1.25218 0.443646 0.0888229 -0.527325 -0.229486 -1.05244 0.441841 0.457086 -0.228084 -0.116785 -0.14997 1.03924 0.73907 0.569316 -0.853172 0.0354604 0.100968 0.0477234
Ancestral_Knowledge -0.204793 0.530459 1.20734 0.211951 -0.632423 -0.129272 -1.26535 -0.302905 0.216865 0.387146 -0.063902 -0.430904 0.505102 0.47186 -0.728969 0.0751531 -1.03407 -0.239335 0.642255 -0.780961 0.429006 -0.429268 -0.46869 0.352127 -0.033182 0.271231 -0.300553 -1.26741 0.194021 0.199164 -1.02997 0.143369 -0.371863 -0.116884 -0.231535 0.52222 -0.47607 -0.42349 -0.732679 -0.0666552 -0.509799 0.151791 -0.0417781 1.18105 1.15138 0.383752 0.771082 0.413274 -0.438694 -1.62281 -0.0651377 -0.241212 -0.36012 0.350101 -0.459656 0.873894 -0.584527 0.534051 0.797083 0.244291 -1.1823 -0.270715 -0.815029 0.662053
Ancestral_Spirit -0.540946 1.39173 0.481038 0.631588 -0.368489 0.508633 -1.43055 -1.29505 0.0404551 -0.323368 -0.581603 0.499284 1.74853 0.564769 -0.131673 -0.246191 -0.458321 -0.470618 0.700137 -0.457568 0.433464 -0.00774861 -1.08976 0.140119 0.25261 -0.140257 -0.514638 -1.02421 0.715123 -0.775137 -0.168187 -0.206818 -0.273846 -0.538696 -0.534229 0.100724 0.0210365 -0.405489 -0.369017 -0.34464 -0.697675 0.359898 -0.32436 1.813 0.688384 -0.326444 0.69794 -0.363077 0.370291 -0.784447 0.486447 -0.63489 -0.180544 0.621158 0.637828 0.252221 -0.406041 -0.0189004 0.717717 0.425892 -1.32432 -0.91063 -0.930693 0.21183
Ancient_Brewmaster 0.895995 -0.912692 0.665637 -0.602589 -0.0645783 -0.57217 -0.598878 -0.152051 -0.721244 -0.185685 1.19083 -0.499445 0.304918 -0.110427 0.148908 0.436837 0.18292 -0.294761 -0.0227771 0.585168 0.685987 -1.0136 -1.36637 0.761195 -0.0238494 0.727757 -0.350101 1.58305 0.00933853 -1.07207 0.218877 -0.686583 0.511032 -0.145139 0.665559 -0.399926 1.02887 0.942923 0.220818 0.153592 -1.84948 -1.31186 -1.59898 2.08177 -0.273183 -0.819149 -1.31484 0.217536 -0.387909 -1.44681 -0.0588331 -1.45493 -0.00215736 -0.549873 0.535569 -0.0854881 0.0478994 0.678989 0.130422 -1.42022 0.444311 -0.537115 -1.21616 -0.226454
Ancient_Harbinger 0.0284732 -1.19703 0.0890923 -0.571151 0.832891 -0.106563 1.23309 0.21714 0.306923 0.435715 -1.16792 0.332862 1.47663 -2.00407 -0.244328 1.09944 -0.393046 0.848919 -0.746333 0.222176 -0.130893 0.759241 -1.36285 0.812658 -0.178895 -0.396221 0.0870427 -0.189995 -0.333109 0.23198 -0.542187 0.990277 0.737548 0.683528 0.899819 -0.315178 0.361559 0.032302 -0.498725 1.06169 -2.42211 1.15331 -0.371749 0.0861173 -0.659465 0.759737 -0.00013371 -0.967911 0.642491 0.270247 -0.441483 -0.284018 -0.702493 0.544577 -0.341794 -1.00543 -0.696317 0.391625 0.47313 1.44031 0.801215 -0.13936 0.0836498 0.408775
Ancient_Mage 0.744856 -0.146181 -0.620562 0.930217 -0.727377 0.689089 -0.130915 -1.28248 0.268681 -0.466561 -0.457443 -0.125976 -0.359419 0.998998 -0.284145 0.0728631 0.0223076 0.427564 1.07967 0.247188 0.0743929 -0.66196 -0.00558413 0.475035 -0.387174 -0.019578 0.174602 -1.46503 1.28573 0.635576 0.260463 0.0640117 -0.0968529 0.174694 -0.145039 -1.13325 -0.186158 -0.593833 -1.03881 0.271344 -0.903279 -0.201507 -0.604416 -0.582987 1.16548 0.462324 -1.29766 0.540655 0.552487 -0.166887 -1.36515 -0.364087 1.52897 -1.58389 -0.205323 -0.229373 -1.43898 -1.27435 0.154939 1.40661 -0.0529923 1.42127 0.0507783 0.603795
Ancient_Shade 0.364489 -0.348334 -0.307555 0.41564 -0.0843907 0.381545 -0.62669 0.624383 1.29882 -0.0232052 -0.28702 -1.27187 -0.992778 -0.00192383 -0.624418 0.795795 -0.771847 0.607042 -0.438497 0.0970734 0.383512 -0.246855 0.163772 0.38122 0.454717 0.247397 -0.827904 -1.41896 -0.600604 -0.508582 -0.262463 0.511737 -0.981587 0.310073 0.0294836 0.401394 -1.14704 0.192338 -0.0642227 0.635606 -0.386106 0.647923 1.05762 -0.0994364 0.852835 0.518835 0.610824 0.525015 0.207357 0.0375044 -0.210645 0.0579814 0.341135 0.367722 -0.350952 -0.378544 -0.374011 0.433036 0.399254 1.27262 0.122595 0.300031 -0.452737 0.819254
Ancient_Shieldbearer -1.71762 0.595067 -0.755519 0.180526 0.272 0.571663 -0.926513 0.64811 0.514434 -0.951765 0.183865 -0.204927 1.38677 -1.58044 -0.625936 0.213914 0.154634 -0.656857 0.172609 0.915425 -0.00512553 -0.741349 -0.637158 -0.549818 -1.07789 -0.161593 0.0195528 0.450748 0.389201 0.135217 0.0187638 -0.0625716 0.326525 -0.151313 -0.968159 -1.02536 -0.107463 -0.813124 0.208995 0.509472 0.262077 -0.790918 -0.0905063 0.958072 -0.537244 0.242228 -0.568636 -0.710966 0.846218 -0.0527475 -0.219325 0.565006 -0.625732 -0.436871 1.17505 -0.323641 -0.314999 -0.768499 -0.10734 -0.884181 -0.82211 -0.930781 0.266462 -0.728759
Ancient_Watcher -0.284505 1.27735 0.834929 -1.35521 1.26976 -0.109983 0.0540652 -0.281131 0.0346023 -0.864976 -0.0776517 0.662175 0.368888 -0.0132709 -1.52186 -0.912763 0.680739 0.0648082 0.489136 0.120259 -0.795238 -0.125204 -0.589495 0.394789 -0.746023 -0.344405 -0.335433 0.0371079 0.197326 -0.177841 -0.530326 0.305314 -0.591978 0.462742 -0.507423 -1.16882 -0.27097 -0.194697 0.51956 -1.04405 0.367918 0.635417 -0.874925 -0.807343 -1.54338 0.945072 0.477746 -1.17387 0.713508 0.343113 -0.131605 0.0814273 -0.556591 0.229929 -0.275117 0.358626 -1.3372 -0.157484 -0.359103 0.407026 -0.097155 0.133331 -1.09186 1.23338
Ancient_of_Blossoms 0.618164 0.253344 -0.487233 -0.710515 1.35367 -0.0692899 1.19873 -0.274966 0.108375 -0.114663 0.548807 -0.8109 0.230704 0.048507 -0.862191 0.686476 -0.512089 0.32109 0.138712 0.277445 0.0207104 -0.111655 -0.301649 -0.948059 0.341774 1.20167 -0.194417 0.641192 -0.507108 0.26837 -1.12092 0.787229 -0.184711 0.635636 -0.67377 0.106258 0.792488 -0.389247 0.0387077 -0.48767 -0.125947 0.363847 -0.278718 -0.676808 0.0945082 -0.378921 -0.0566113 -0.20008 0.276849 0.32235 -0.540299 0.127944 -0.475239 -0.0848522 0.106886 -0.649356 0.495704 0.179127 0.0925907 -0.267954 -0.542648 0.539571 1.31095 0.548982
Ancient_of_Lore -0.852937 -1.12653 -0.281075 0.195672 0.893856 -0.652158 -1.53573 -1.19731 0.16884 0.153358 0.161002 -0.59233 -0.0419426 -0.214214 1.01856 0.695174 -0.167318 -0.681219 -0.501224 0.302966 0.608365 -1.11158 0.411319 1.07383 -0.483057 0.0941263 -0.110701 0.709126 -0.583187 -0.114075 -1.80645 -0.525121 1.13212 -0.112807 0.337166 -0.305612 0.288716 1.29242 -0.0302953 -0.0816083 -0.741051 0.135371 -1.11959 -0.209933 1.35143 -0.0414462 -0.193059 -0.187629 0.648198 -1.4212 0.492698 0.419729 -0.513701 1.01088 0.504522 -0.526817 1.51261 0.0366329 -0.478086 -0.940062 -1.11592 -0.293514 1.06405 0.802988
Ancient_of_War -0.29087 -0.624185 0.0454895 -0.196513 0.163377 1.24796 -0.631855 -0.610335 -0.729204 -0.0934862 -0.720639 -0.150544 -0.354282 0.201965 -0.0993387 0.327935 -0.709812 -0.390111 -0.555725 0.760025 -0.438687 -0.213658 -0.257542 -0.0829235 -0.989516 -0.858966 0.364655 -0.00197351 -0.402508 0.110568 -1.0053 0.501766 0.267807 -0.436804 0.26425 -0.924692 -0.547417 0.764703 -0.212406 0.530561 0.539506 0.0312789 -1.20211 1.29002 0.208414 0.165111 -0.0586367 -0.315135 0.429888 -1.08381 0.403838 0.591831 -0.179749 0.828452 -0.351721 0.25737 -0.0600853 0.166253 0.00538804 -0.493522 0.565397 -0.115928 -0.265148 0.596915
Anduin_Wrynn -0.372427 -1.25197 -0.615873 0.566991 -0.53533 1.08256 -0.0837275 -0.117047 0.312785 0.245385 -0.453762 -0.288423 0.464994 -1.15684 1.26469 0.13388 -0.502778 0.224601 0.0697929 1.42391 0.0979972 -0.396381 0.53254 -0.167963 -0.252965 0.567444 0.178423 0.0990722 -1.31556 0.158766 -0.0501087 -0.475732 0.359611 1.58323 -0.798751 -1.21566 -0.124884 -0.00517932 0.545678 0.472557 -0.0379126 0.26406 -0.380442 0.453541 0.381846 0.281942 -0.727936 -0.65885 0.317359 0.0517492 -0.675185 -0.0819349 -0.092303 0.148732 0.964696 -0.260539 -0.587313 -0.206175 -0.589962 -0.0236654 0.755556 -0.500897 -0.10571 -0.0144702
Angry_Chicken 0.487399 0.595268 1.11625 -0.52418 1.14642 0.49417 -0.826335 0.296497 0.173949 -0.085793 0.896262 0.365074 -0.451387 0.276363 1.13045 -0.238048 0.527579 0.693967 -0.5347 -0.327037 0.303766 -1.16241 0.180857 0.551248 -1.1045 0.260297 1.69541 0.316391 -0.635051 0.800828 -0.205417 0.57435 1.01767 0.239198 -0.0403898 -0.455867 -1.42042 -0.78949 1.13999 -0.121818 -0.6941 -0.35833 0.16406 -0.354708 -0.0687922 -0.580011 -0.717795 0.286622 0.809244 0.13477 0.529314 0.105657 0.533937 0.0135985 -0.285087 0.0142366 -0.121185 -2.38285 -0.103311 0.363202 -0.158631 -0.225922 -0.171013 0.211504
Anima_Golem 0.0294285 0.0490153 -0.000558615 0.0320121 -0.0243224 -0.000431489 0.00130776 0.0411759 -0.0185703 0.00820635 0.040246 -0.0332147 -0.020597 -0.0141239 -0.0296773 -0.0152701 -0.0181244 -0.0390195 -0.0319697 -0.00666417 -0.00801256 -0.0179581 0.0177403 0.00668566 0.0447885 -0.00458876 0.0274342 -0.0214931 0.0492898 -0.00436045 0.00789841 0.00626634 -0.0273528 0.0333223 0.0234987 -0.00106511 0.0381025 0.0283443 0.0320335 0.0415055 -0.00801761 -0.0168046 -0.0479663 0.0414591 -0.041265 -0.0375627 -0.0129189 -0.0187341 0.0470017 0.012619 -0.0170538 0.0308348 -0.0442761 0.0243352 -0.000289895 -0.0338919 -0.0257044 -0.0443477 0.00857481 0.00432662 -0.039929 0.00133856 -0.0315729 -0.0166508
Animal_Companion 0.311335 0.842166 0.380117 0.293258 0.0855648 -0.124536 -0.458079 -1.10981 -0.260148 0.206016 0.269978 -0.161422 -0.273529 0.277362 -0.473969 -0.283123 0.357544 -0.225112 0.144232 1.08862 -0.0591579 -0.459682 -1.04031 0.149186 -0.30491 -0.458837 0.941504 -0.382374 0.926605 -0.128712 0.510979 -0.2784 -0.0849643 -0.0620887 0.42921 -0.258753 -0.590199 -0.475641 1.02548 -0.34114 0.259927 -0.689237 -0.143224 -0.116575 0.908281 0.290294 -0.396223 0.342105 0.592557 -0.998216 -0.13287 0.499974 0.610933 -0.285095 -0.792057 -0.148679 -0.870597 -0.136853 -0.0113974 0.618364 -0.394195 0.228509 -0.432385 -0.477179
Animated_Armor -0.375801 0.190738 0.0471084 -0.413016 -0.449473 -0.405992 -0.425377 -0.00512002 -0.783666 0.677684 0.524924 -0.778669 0.80343 -1.05482 -0.335998 0.296115 0.344151 0.216599 -0.304544 -0.670105 -0.244142 -0.768135 -0.240208 0.520263 -0.19499 -0.625808 -1.04272 1.34998 0.259846 -0.529856 -0.403582 0.925117 -1.15296 0.262112 0.524791 -0.605163 1.03173 0.105873 -0.210686 0.0599899 0.320914 0.898287 -0.128066 -0.592385 0.788547 -0.470194 -0.0517622 0.324915 -0.54984 -0.361116 -0.203209 1.00501 0.506928 0.0793436 0.33746 -1.11503 -0.159321 0.727901 -0.765953 0.135512 0.5151 -0.389091 -0.177927 -0.642064
Animated_Berserker -0.508636 1.27382 -0.765964 0.894898 0.329585 0.220362 -0.831094 0.592458 -0.216275 0.680999 0.248324 0.227069 0.788907 -0.195341 -0.360147 -0.288721 -1.26761 0.0191342 1.2132 1.65988 -0.471004 0.469846 0.212222 -1.49644 -0.305328 -2.11582 0.383582 1.40333 -0.186586 1.81394 -0.554861 -0.690832 -0.685786 -0.227697 -2.08736 -0.130249 -1.26059 -0.144788 1.03042 -1.01898 -0.105155 -0.360519 0.660052 0.161483 -0.652227 -0.351065 -1.5826 -1.42163 -0.298853 -0.749408 -0.334196 0.254869 -1.0463 -1.45062 1.33943 0.815096 0.648538 -0.700265 -0.360286 -1.58111 -0.33698 1.36993 -0.589831 0.534217
Animated_Shield -0.0465486 0.0346856 -0.0032202 0.0270402 -0.0442619 -0.0445784 0.0431579 0.0255962 -0.000821996 0.030883 -0.0202378 0.0253046 0.0400697 0.0165952 -0.0348473 0.0224104 0.0479143 -0.0149416 -0.0411641 -0.011218 0.0177707 -0.00529168 0.0249038 -0.0327821 0.0292601 -0.0285907 -0.0358939 0.0204158 -0.0485061 0.00540604 0.0456901 0.0209241 -0.0285971 0.000728168 -0.0236488 -0.00464368 -0.029358 0.00946074 0.00601816 0.0499518 -0.0170457 -0.0240652 0.0131517 0.0227212 -0.00896532 -0.0458832 -0.0017413 -0.029741 -0.0264067 0.0148418 0.00784443 -0.0318292 0.00705298 0.0388899 0.00781872 -0.00623532 0.0337056 -0.0392917 -0.0210664 0.00117985 0.021628 0.032654 0.0284178 0.013794
Annoy-o-Tron 0.15993 -0.701616 -0.135681 -0.383232 0.653346 -0.614899 -0.860851 0.875136 0.601464 -0.805483 0.0425982 -0.147444 -0.600964 0.0429918 -0.395893 1.24986 0.155132 1.05219 0.50288 0.0463866 0.865368 0.531101 0.124532 1.54802 0.0834939 0.381291 1.40522 -0.562886 0.585057 -1.01927 0.747225 0.610971 0.366422 -0.765707 0.302258 -0.481459 0.357952 -0.688327 0.660437 0.464995 0.00461792 1.16176 0.53648 0.282695 -0.738087 0.483812 -0.536868 0.492497 -0.378243 0.0343573 0.784022 0.29075 -0.0448546 -0.630718 -0.0196257 -0.163604 0.834341 -0.328734 0.516107 0.356297 0.494279 0.59692 0.650235 0.682906
Anodized_Robo_Cub -0.321152 -0.750788 -0.665061 -0.21285 -0.178882 0.305534 -0.0738704 0.355409 0.327966 -0.0503617 -0.196911 -0.903868 -0.173079 -1.38148 -0.0247038 0.410582 0.0401498 0.8179 -0.306537 -0.282768 -0.11096 -0.542854 1.12291 1.05889 0.610436 -0.59193 1.39032 0.152424 0.327913 -0.916466 1.07981 -0.00874216 0.259839 0.41307 0.677107 -0.195857 0.856434 0.561325 -0.0772966 1.3592 -0.447794 0.0536408 -0.741699 -0.200647 0.828468 0.0391045 -0.0831019 0.474485 -0.325664 -0.565511 -0.746083 2.68515 -0.000440155 0.428058 0.41761 0.0443681 0.257653 -0.584627 0.281678 0.1279 -0.00474896 0.446955 -0.660918 0.576844
Anomalus -0.498659 -0.420752 0.586314 -0.0396784 -0.034884 -0.471055 0.369448 -0.0814826 -1.65702 1.03595 -0.333281 -1.3298 0.925103 0.266629 0.81292 -0.274258 0.428111 -0.980242 1.25871 -0.0484007 0.845068 -0.0954251 0.0513091 1.15453 1.03671 0.82687 0.235021 -0.500581 0.633763 -0.0661988 -0.903514 0.770827 -1.03245 -0.384594 -0.317016 -0.147721 0.128229 0.59131 0.599839 -1.10581 -0.0222039 1.27888 -0.201581 1.23278 0.596788 0.206447 1.32972 0.0752383 0.775823 0.0640657 0.775303 -0.169017 -0.0273515 -0.616156 -0.402147 -0.0167195 -0.0265863 0.495724 1.1455 -0.904322 0.0876564 -1.36121 0.176158 -1.39841
Anti-Magic_Shell 0.48907 -0.320968 -0.294614 -0.939925 0.0815274 0.0457939 -0.579134 -0.634207 -0.763071 -0.558941 0.204873 1.09053 0.193512 0.242058 -0.64933 -0.192629 -0.347506 -0.316831 -0.127773 0.0124396 1.08057 1.34119 -0.112679 1.00881 -0.498364 0.661119 -1.00859 0.650768 0.0396516 0.600297 -0.507366 0.344199 0.421363 0.561973 0.474626 -0.994172 0.384591 0.903215 -0.950301 -0.730506 0.57454 0.127622 -0.228949 -1.01341 -0.304284 -0.626637 0.567649 0.557699 -0.715639 0.947074 -0.505316 1.06939 0.43883 0.339111 -0.107626 -1.41031 -0.149225 -1.53341 0.433929 -0.891673 0.697888 -0.0101691 0.408212 -0.341137
Antique_Healbot -0.105029 -0.0179025 0.704143 0.123878 -0.413167 0.264181 -0.437669 -0.00266264 -0.244827 -0.14659 0.494014 -0.941782 1.3406 -0.225008 -0.230781 0.949333 0.289972 0.733493 -0.0185998 -0.891114 -0.362724 0.451494 -0.078024 0.936121 0.329147 -0.256057 -0.749282 -0.591462 0.195146 -0.898229 0.0871966 -0.154107 -0.680155 -0.421186 0.334728 0.00979572 0.545386 0.37508 0.33153 0.262042 -0.224045 0.917551 -0.448683 -0.149973 0.710089 -0.432175 0.512341 0.0112056 -0.283732 -1.03868 -0.179378 0.313415 -0.586904 -0.215477 -0.408449 0.141179 0.578636 -0.370506 -0.249016 0.365069 0.0239204 0.0199195 0.029358 0.338127
Anub'ar_Ambusher -1.02654 -0.999125 1.02469 -0.467349 -0.179578 -0.694896 0.135341 -0.925502 -0.484277 0.542423 0.0456873 -0.251016 -0.97378 0.124784 0.317889 0.46291 0.337694 0.214164 0.122434 0.245034 -0.185084 -0.679055 0.120166 -0.253536 0.224957 0.18283 -1.59426 -0.459849 -0.140681 0.740109 0.447442 0.101204 -0.39386 1.65952 -0.314538 -0.815535 -0.131133 0.313607 0.617347 0.478047 -0.149096 0.0299057 -0.315268 -0.213663 1.59411 0.548361 -0.354331 0.66889 0.809554 -0.64137 -1.03427 0.173244 1.32468 0.941295 -0.0777727 -0.374841 -0.997699 -0.214734 -0.0714115 1.2896 -0.182546 0.139053 -0.287628 -0.436219
Anub'arak -0.748464 -0.292405 0.601387 0.81379 -0.798448 -1.32896 0.230139 -0.28201 -0.959968 0.921302 0.145329 -0.43583 -0.518675 -0.483053 0.331441 -0.61851 -0.0277275 0.0357049 1.40194 0.0152038 0.959466 -0.882105 -0.20579 0.915041 -0.128011 -0.34628 -1.2716 -0.139836 0.297557 -0.725896 -0.347394 0.958309 -0.397193 -0.724143 -0.967504 0.0251807 0.769069 -0.767748 1.48193 0.139176 -1.20193 -0.041074 0.897859 0.842642 -0.60472 1.22265 0.119252 -0.366651 0.35807 -0.794515 0.0385211 0.869656 0.285198 0.72498 -0.485337 -0.568859 -1.57547 -0.605579 -0.19429 -0.136368 -0.329602 0.0145441 -0.036213 1.23062
Anubisath_Sentinel 0.424866 -0.81596 0.634638 0.149219 -0.495795 -0.797704 -0.336936 -0.315586 0.980144 0.0395532 1.42488 0.543218 0.13257 -0.281795 -1.18804 0.727312 0.451418 0.33939 0.715741 -0.441025 0.638281 -0.175094 -0.0316733 0.599926 0.252572 0.391349 -0.321945 -0.454373 0.367895 0.155004 -0.242019 0.25985 0.0470781 -0.354531 0.3148 0.544148 1.34555 0.634955 -0.0451718 0.391432 -0.749597 0.0567071 -0.111195 -0.448655 -0.0209297 1.14508 0.150434 0.438631 0.6423 -0.120637 -0.393576 0.137885 0.281902 0.293442 0.101292 -0.112582 -1.05026 0.438535 0.531346 0.591749 0.607236 1.65502 0.247066 0.0614321
Anyfin_Can_Happen -0.715725 -0.786122 -0.290697 -0.54175 0.733563 0.818968 -0.348148 0.153798 -0.44834 -0.203359 -0.0299383 -0.598003 0.145575 0.233696 -1.48214 0.249452 -0.824052 -1.09868 -0.477237 0.709326 -0.391286 -0.434148 -1.10392 0.124267 -0.719066 0.504027 0.0874024 -1.29767 0.64453 -0.256703 -1.19772 -0.636009 1.20287 -0.408347 -0.194261 0.726984 0.500852 -0.419792 0.249521 -0.296476 0.0216651 0.026009 0.580836 -0.8539 1.10822 0.368367 0.20939 0.924316 -0.865044 0.171726 0.0349057 1.48824 0.270174 0.339161 -0.625973 -0.381006 0.72047 0.929589 0.0164558 -1.37193 -1.15531 -0.115928 0.580905 0.978742
Arathi_Weaponsmith -0.0341477 1.22261 -0.649418 -0.28967 -0.224977 0.423403 -1.16019 0.513315 0.474574 0.333384 0.74494 -0.222666 -0.530341 -0.737 -0.226552 0.548282 -1.56406 -0.277796 -0.461969 0.903195 -0.216525 0.139433 0.485343 -0.447552 0.883328 0.0578361 -0.0830606 1.16006 0.231639 -0.474226 -0.207096 -0.892963 -0.108477 0.289428 -0.315178 -0.346548 -0.277482 -0.492716 0.63677 -0.0334892 -1.14609 0.106288 1.18568 1.04596 0.187918 0.670821 -0.750516 -0.142036 1.23832 -1.79668 -0.610569 1.0969 -0.461512 0.0376571 1.2034 0.270728 -0.401339 0.221793 -0.491425 -0.298455 -0.410075 0.158295 0.554614 0.0542845
Arcane_Anomaly 0.705961 -0.315862 0.592478 -0.0874548 0.326574 -0.360953 -1.1666 0.654062 -0.575879 -0.215128 -0.350133 0.118676 1.45584 -0.588979 -0.0967175 0.230497 -0.727332 0.148085 0.262239 -0.172106 -0.260857 0.253832 -0.0977332 0.0820791 -0.318516 -0.446304 1.20807 0.558792 -0.188902 -0.183164 0.188816 -1.02377 0.0742023 0.138397 0.880551 -0.944143 0.735945 -0.647577 -0.390087 -1.24494 -0.0398706 0.353016 -0.185188 -0.385192 0.0314782 1.002 0.173192 -0.370057 0.118434 -0.200617 -0.249748 -0.58875 0.806441 -0.51169 -0.831461 -0.3233 1.10991 1.61317 -0.663411 1.61799 -0.246255 1.3511 0.32957 0.179732
Arcane_Blast -1.1564 -1.21256 0.757873 -0.148492 0.197266 -0.434784 0.62237 -0.018009 -0.193484 0.569848 0.693412 -0.156189 0.923453 0.49834 -0.535766 0.588795 -0.118261 -0.602655 0.912256 0.6909 -0.942483 0.201131 -0.936967 -0.719498 -0.624881 -0.693637 0.324246 -0.40382 0.675253 0.0346854 -0.293632 0.477109 0.0726266 -0.28424 0.409186 -0.204889 -0.249462 0.617158 1.03417 -0.514008 -0.119823 0.283089 -0.389698 0.429235 -0.503559 1.25711 0.542318 -0.265091 -0.545312 -0.7291 0.685907 0.693529 0.0598943 0.182232 0.499195 -0.747977 0.0213176 0.828027 0.851751 -0.192605 0.481286 0.00531152 -1.07723 -0.418307
Arcane_Explosion -0.334995 -0.392348 0.223687 0.0832697 0.233954 -0.928363 0.373474 -0.346526 0.0389024 1.02089 0.415243 0.407237 0.684922 -0.419654 -0.467459 -0.212456 0.214437 0.15698 0.989883 0.237098 0.539744 0.448491 -0.619691 -0.182402 0.130638 -0.396737 -0.0178828 0.835448 0.126364 0.39186 -1.06131 0.160073 -0.622128 -0.230433 -0.205119 0.117317 0.78615 -0.475319 0.837617 -0.372295 0.0381073 -0.134843 -0.988236 0.76269 -0.306187 0.424838 0.367527 0.248746 -0.620925 -0.176365 0.546538 1.03728 0.582294 0.046806 0.600015 -0.520885 0.599334 0.308768 -0.111456 -0.47859 -0.106969 -0.255997 -0.66355 -0.589106
Arcane_Giant -0.28838 0.124396 0.020196 -0.218029 -0.581506 -0.00854158 -1.08389 -0.437963 -1.24956 -0.0628961 -0.14931 -0.287547 0.228884 0.321109 0.252201 0.100849 0.512522 0.341794 0.827184 0.485927 -0.618643 0.271766 1.08642 -0.143715 0.185657 -0.207395 -0.0700356 0.257075 -0.615578 1.03098 -1.28514 -0.444381 -0.0266892 0.0987046 0.211426 -1.12358 0.3172 0.800625 0.0683165 0.330598 -0.709246 0.837451 -0.237772 0.402399 -0.0268907 0.00970177 -0.501133 0.133541 0.00186877 0.349051 -1.09386 -0.277749 -0.0291865 0.492568 0.561849 -0.146976 -0.123596 -0.425611 0.334597 -0.700591 0.193671 -0.316649 0.165775 -0.643011
Arcane_Golem -0.282137 -0.165958 0.26907 -0.553393 1.11252 1.11192 -0.183989 0.326321 0.0104357 -0.0406905 0.362259 0.233773 -0.256254 -0.63385 0.262831 0.225153 -0.350391 1.50312 0.241 1.1099 -0.655666 0.83721 0.328359 -0.0934593 -0.613626 0.40121 -1.5389 0.133666 0.31462 -1.37245 0.474639 0.0448336 -1.36161 -0.257278 0.425251 -0.387773 0.0686888 0.34884 0.947762 -0.369943 0.0836101 1.34395 0.00668562 -0.332186 0.595176 0.33103 -0.141319 -0.122412 -0.18549 -0.0717845 0.0257638 0.447099 0.272916 -0.17482 -0.275071 -0.00469087 -0.381687 -1.6189 -0.759439 0.417826 -0.37899 0.98451 0.458806 0.554561
Arcane_Intellect -0.570316 -0.385135 0.244509 -0.646011 0.562873 -0.54539 0.814203 -0.388087 0.204189 0.462096 0.172466 0.535125 0.348519 -0.49039 -0.29067 -0.256613 0.355295 0.280272 0.164379 0.399094 0.18361 0.62648 -0.547227 0.0592901 0.196553 -0.512256 0.783104 -0.282985 0.4329 0.0690564 -0.430271 -0.0458181 -0.195328 0.126005 0.0906233 -0.106202 0.250099 0.0346805 0.942393 -0.201652 0.136661 0.0467054 -0.739708 1.10944 -0.435821 0.387329 0.414534 0.240481 -0.749106 -0.133784 -0.0158866 0.52657 0.341267 -0.27493 0.14494 -0.126981 0.468633 0.583074 0.303114 -0.645262 0.177252 0.24418 -0.739029 -0.267284
Arcane_Missiles -0.133363 -0.376276 0.378667 -0.0365689 0.319441 -1.00832 0.494404 0.577673 -0.0169849 0.635594 0.148073 -0.405066 0.623817 -0.624057 -0.519723 0.314693 0.204895 0.0494007 0.823952 0.628128 -0.095985 0.334607 -0.573189 0.206352 -0.354096 -0.172595 0.339215 -0.27978 0.270766 -0.0618591 -0.233473 0.806615 -0.128742 -0.64863 0.24382 -0.07286 0.122877 0.155051 0.311906 0.0947263 0.374878 0.0232727 -1.27825 0.515903 0.329743 0.750525 -0.421847 0.501144 -0.666371 -0.970492 0.240317 0.533111 0.212413 -0.0515411 0.757737 -0.111174 0.593114 0.372717 0.572837 -0.908031 0.177986 -0.218242 -0.779074 -0.445464
Arcane_Nullifier_X-21 0.754607 -1.04573 -0.320837 0.0373712 0.726766 0.223886 -1.47676 0.275777 0.560082 -0.392071 0.483857 -0.39762 -0.65189 -0.281971 0.0178134 1.95903 0.232653 0.602965 0.197446 -0.399197 0.229345 0.00636819 0.939467 0.286512 0.569111 -0.802295 -0.184592 -0.923398 0.554584 -0.939965 0.0597786 0.494691 -0.0826076 -1.07849 0.330133 0.0243325 0.848839 -0.130179 -0.0348414 0.62384 0.225586 1.644 0.380474 -0.607447 -0.48085 0.594963 0.855969 -0.0932896 -0.473529 -1.40327 0.299327 0.821364 0.434366 0.502007 0.260641 -0.141512 -0.152813 0.702566 1.57609 -0.286267 -0.04447 0.472428 -0.496563 -0.402088
Arcane_Shot 0.622732 0.268077 0.344614 0.133086 0.279493 0.21114 -0.386025 -0.340119 -0.879897 0.721914 1.25394 -0.432899 0.0366423 -0.795136 -0.627181 -0.358906 0.942126 0.377716 0.701022 1.5518 -0.141677 -0.124269 -0.944091 0.498539 -0.913099 -0.242524 0.454935 0.582074 0.714126 -1.04419 0.352767 -0.12663 -0.831402 0.180466 0.226207 0.235977 -1.13896 -0.668308 1.18936 -0.47636 -0.724399 -0.738558 -0.381462 -0.37035 1.03867 0.879037 -1.129 -0.375267 0.495863 -0.965733 -0.69112 -0.282734 0.210706 0.40506 -0.969163 -0.0439178 -0.369126 0.418368 0.0812951 0.0508193 0.0381554 0.631846 -0.557952 -0.356353
Arcanite_Reaper -0.2615 0.68071 -0.304257 -0.0967975 0.222299 -0.0010415 0.121535 0.782773 0.694031 -0.0360681 0.912042 -0.222678 -0.775729 -0.0598321 -0.566491 0.422182 -0.726998 -0.582868 0.272194 0.94247 0.428012 -0.278259 -0.530028 -0.394747 -0.266884 -0.582151 -0.582286 0.0337073 0.452624 0.91658 -0.629267 -0.258071 -0.0722786 -0.322018 -0.881612 -0.281778 -0.342626 -0.145646 0.395935 -0.125438 -0.538772 0.47009 0.199529 -0.0436267 0.122668 -0.0572004 -0.618945 -0.126122 0.0324887 -0.685056 -0.323992 0.523904 0.612964 -1.14609 0.513888 1.23904 -0.848241 0.276717 -1.00705 -0.555695 -0.226138 0.483189 -0.0209441 0.503856
Arcanologist -0.850184 0.160484 0.513393 -1.19977 0.471873 -0.409403 0.373504 -1.38878 -0.214279 0.629775 0.420726 0.00680947 0.28584 -0.152533 -0.30907 -0.135745 0.381241 -0.394007 0.29492 0.694982 0.499679 0.172517 -0.222745 -0.154649 0.758741 -1.03575 1.01248 -0.543703 0.00102574 0.964151 0.383139 0.2005 -0.223484 -0.218619 0.338999 -0.138167 0.0386749 0.662742 0.0439024 -0.855948 -0.851815 0.196004 -0.0410049 0.317491 -0.442306 -0.130471 0.911962 0.350884 -0.630303 -0.0368355 -0.202591 0.100344 0.179017 -0.472457 0.680444 0.657681 0.834901 -0.121709 -0.0580364 -1.09398 0.505132 0.291634 -0.566714 -0.109839
Arcanosmith -0.180386 -0.907844 0.291823 -0.180264 -0.523157 -0.0581572 0.771945 -0.36675 -0.0502719 0.966492 -0.149278 -0.837329 1.81808 0.088508 -0.247825 0.186126 -0.166057 -0.33363 1.01794 -0.691796 0.488062 -0.673872 0.430866 0.659086 0.105146 -0.371123 0.071345 -0.0817021 -0.0819537 -0.467687 -0.93589 0.190998 -0.221451 -0.597223 0.356537 0.226561 0.393869 0.103469 -0.590917 0.499825 -0.228288 -1.01749 -0.469417 0.17844 0.80293 0.71479 0.657411 0.309049 0.457678 -0.137142 0.0757215 0.635007 -0.164414 0.197347 -0.680536 -0.0591277 -0.411389 -0.428499 0.693003 0.219464 0.224204 0.400849 -0.594369 1.02945
Arch-Thief_Rafaam -0.287009 -0.555647 -0.362588 0.590899 0.183596 0.630053 -0.662262 0.326568 -1.49642 0.955114 -0.0339191 -0.243091 -0.115984 -0.351086 -1.8176 1.14603 -1.06119 0.295152 0.468457 0.38559 -0.142634 0.293303 -0.63927 -0.036038 0.240953 -1.60875 -1.25026 0.567899 0.131974 -1.20311 0.286749 -0.0256745 -1.42109 -0.251196 -0.210837 0.0238421 -0.748344 0.910629 0.0586384 0.583296 -0.919931 0.502665 0.043716 0.357154 0.218308 0.575316 -0.984312 -0.503871 -1.58929 -0.345623 -0.143177 -0.00140856 -0.556513 0.0436561 -0.406731 0.0177402 0.721988 -0.286981 0.445605 -0.437267 -0.141389 -0.881816 -0.846367 -0.216692
Archbishop_Benedictus 0.293062 -0.294293 2.49884 -0.869934 0.469471 0.318159 0.446991 -0.449808 0.259592 1.5526 -0.0287423 0.943821 -0.394489 -0.60803 0.39151 0.495653 -0.825125 1.15815 0.729351 0.0265822 1.16609 -0.139389 -0.222949 -0.439016 0.31549 0.210459 0.101678 -0.184035 -0.835754 1.04326 0.0322107 0.780964 -0.449624 1.87647 -0.0124631 -0.145222 1.31503 -0.494536 0.246462 -1.12094 0.384278 0.362759 -1.8755 -0.540628 0.0172655 -0.115113 0.293724 -0.0699261 0.729904 0.978085 0.51343 -0.596542 -0.50045 -0.842684 -0.0637723 -0.791179 -0.0837601 -0.473384 -0.216163 0.00442168 0.569496 0.271336 1.42876 -0.181483
Archmage 0.0405622 -0.0601788 0.3363 0.27428 0.84751 -0.628666 0.256171 0.490661 1.36618 -0.187594 -0.151165 0.455705 0.84156 -1.07029 -1.11957 -0.175278 0.201871 0.0316773 -0.137054 0.0237843 0.320897 0.528002 0.0201075 0.129933 -0.0830506 -0.993562 0.0631345 1.06284 -0.550671 -0.11307 -0.630608 0.0749794 -0.613384 -0.188041 0.312463 0.270492 0.177557 0.620744 0.271315 -0.655517 0.280715 -0.0880147 -1.84325 -0.0600599 0.432903 -0.133428 0.320823 -0.299735 -0.732057 -0.029644 -0.440092 -0.153376 0.672208 -0.00122322 0.299053 -0.974962 0.34394 0.234229 -0.138554 -0.11579 0.787861 1.19631 0.326712 -0.0795206
Archmage_Antonidas -1.32158 -0.203814 0.0251616 -0.466785 -0.323848 -0.5434 -0.105617 0.135677 -0.558577 0.0907667 0.233113 -0.497693 0.0379839 0.639315 -0.539469 0.198662 0.771763 0.388395 0.376586 0.25966 0.325941 0.480936 -0.500102 -0.0314474 -0.194511 0.316482 0.116907 0.289201 -0.0936574 -0.483133 -1.17004 -0.0673897 -0.243872 0.254255 0.66429 -0.664874 0.455546 0.0897958 0.814162 -0.70003 0.0801807 -0.0887546 -0.858795 0.695367 -1.16777 0.362971 0.672143 0.691143 -0.116368 -0.28331 0.119505 1.01324 0.117236 0.490405 1.22918 0.617936 0.240418 0.459523 0.483004 -0.714477 0.375425 -0.495309 -0.545792 -0.143562
Arfus 1.00076 -0.0780102 0.800599 -0.492892 -0.268054 0.292269 0.247216 -0.881155 -0.402244 -0.666568 -0.00937871 0.790486 -0.0421825 -0.118155 0.718789 0.235035 -0.142512 -0.147862 0.360667 0.124268 1.38207 0.0949562 -0.0731949 0.226353 0.206384 0.581613 -1.18082 0.150551 1.26599 -0.298574 0.799377 0.161008 0.460229 0.28785 0.660062 -0.253459 0.0595063 -0.070529 0.1962 0.0557692 -0.488209 0.0890856 -0.0581434 0.204105 -0.19005 -0.760005 0.339734 0.0628959 -0.182278 0.0511159 -0.657538 0.0882961 0.432395 -0.801561 -0.0725612 -0.0887593 -0.721039 -1.61414 0.613146 0.855689 -0.227906 0.475896 -0.741737 -1.1255
Argent_Commander 0.189088 -0.0338138 -0.0304567 -0.302785 0.513467 0.00340637 -0.590991 0.643526 0.0593057 -0.207454 0.315244 -0.681098 0.948652 0.416685 -0.523174 0.496909 -0.300459 0.146572 -0.210488 0.166063 -0.368957 -0.209002 0.945345 -0.333724 0.171265 0.671531 -0.22153 0.555646 -0.285264 0.385456 0.462095 0.694199 -0.937146 -0.184126 -0.0964617 0.409007 -0.0540572 -0.00925472 -0.376238 0.407331 -0.913999 -0.586167 -0.0442866 0.18835 -0.286839 0.96254 -0.664559 0.0762146 0.403193 -0.248151 -0.02417 0.735959 0.427099 0.185071 0.0376416 -0.659949 -0.0646337 0.569259 -0.530881 0.107575 -0.613955 1.3505 0.95097 0.261822
Argent_Horserider 0.165226 -0.27514 -0.00346369 0.814408 -0.194281 0.563703 -0.711595 0.1908 1.29038 -0.941099 0.790184 -1.59422 0.307154 -0.450388 0.305787 0.473287 -0.483839 0.284524 0.247847 -0.24603 -0.135725 0.664503 1.00486 -0.120789 -0.854698 -0.0290644 0.140078 -0.89525 0.423477 0.186602 0.146431 0.729571 0.466432 -0.272748 0.258221 0.25521 -0.773901 -0.842537 0.0654697 0.0249493 -0.896689 -0.0375447 0.025507 0.411296 0.112006 1.40728 0.346698 0.307829 -0.293231 0.0247478 0.00625142 1.04332 0.55737 0.336084 -0.441811 0.231759 -0.165616 0.286961 0.644633 0.26305 -0.865233 1.12081 0.432541 -0.284865
Argent_Lance -0.00153881 -0.349012 -0.230589 -0.171435 0.306189 0.139052 -1.8832 0.348067 0.14552 -0.17426 0.636612 0.171056 1.05036 -0.472354 0.622628 1.12251 -1.18499 0.822713 -0.622173 0.549909 -0.0254328 -0.581612 0.0628911 1.0042 0.606018 -0.271506 -0.903566 -0.00212587 0.41613 0.114328 0.824308 0.742939 0.714483 0.0426536 0.113813 0.264438 0.231305 -0.690018 1.11248 0.242406 -0.670627 0.0451687 0.708433 -0.498167 1.0724 1.15721 -0.296737 0.508558 1.75906 -0.00881904 0.503253 1.80435 1.44907 0.262187 -0.433183 -0.0103429 -0.586895 1.33367 -0.211174 1.19089 -1.66213 1.28779 1.33763 1.04511
Argent_Protector 1.04131 -0.405372 -0.769236 -0.497854 -0.160053 0.0822432 -1.75175 -0.420377 -0.0108133 0.351986 1.17926 -0.217372 1.20654 -0.90452 -0.832898 0.712379 -1.30823 -0.522209 0.295272 0.724686 -0.418432 -0.37168 -0.621411 0.677493 -0.33976 0.396044 0.403044 0.153027 0.684404 -0.611478 0.640323 0.0827106 0.380823 -0.06914 0.113745 -0.181882 -0.314733 0.157272 -0.402336 0.0699475 0.308204 0.601293 0.0267558 -0.38345 1.07444 0.237485 -0.172177 0.122351 0.78302 0.397575 0.745764 1.57572 0.740499 0.465611 0.404883 -0.121218 0.187614 0.993041 -1.11617 0.569935 -0.211281 -0.677324 1.74635 0.302931
Argent_Squire 0.454033 0.190965 0.22468 0.433907 -0.479477 0.0946141 -1.103 -0.0308491 1.0662 -0.413012 -0.417517 -0.800294 0.246592 -0.586482 0.172959 0.268945 -0.602344 0.32586 -0.53401 -0.5825 -0.192013 0.357785 0.212893 -0.0483958 -0.0940828 0.102327 1.35064 -0.0770266 0.224625 0.321011 0.147211 -0.353249 0.105044 0.396413 0.184867 -0.713486 -0.40231 -0.831372 -0.34102 -0.1461 -0.427406 0.0281051 -0.00992644 -0.235019 -0.205896 0.0603455 0.0052099 0.815735 0.177814 0.264957 -0.370943 0.882353 1.114 -0.231447 -0.0784753 -0.392957 -0.141081 -0.0554464 0.299174 0.663948 -0.317934 -0.0465962 0.205278 0.761724
Argent_Watchman -0.418696 -1.36089 0.64393 0.0409708 0.127408 -1.07169 0.259021 0.252359 -0.265559 0.755032 1.55342 -1.40477 -0.147437 0.0883207 0.266024 0.739822 1.10772 1.1968 0.53389 0.150983 1.23474 -0.176856 -0.0997902 1.19433 0.827652 1.05238 1.54329 0.672568 0.9757 0.482462 -0.40063 1.1142 0.152736 0.353792 0.535301 0.225431 0.557164 -0.973677 0.364028 -0.771312 -0.195932 0.790175 0.677 1.49243 -1.52106 0.410158 0.106047 1.53744 -0.0389559 -1.40191 -0.161005 0.0631013 1.01312 -1.16226 0.999841 0.258381 1.47075 1.10729 1.19215 -0.652122 0.315246 0.547076 -1.4552 -1.12134
Armor_Plating -0.104798 -0.113964 0.0952473 -0.586523 -0.121822 -0.782911 -0.440007 -0.335663 1.08648 -0.291245 -0.27569 0.343452 -0.372271 -0.844155 -0.131748 1.52321 0.422418 0.543167 -0.209407 -0.188141 -0.0880876 -0.908415 -0.086401 1.55757 0.502521 -0.562601 0.129429 0.180256 0.273248 -0.914749 -0.370643 -0.0194824 1.75429 -0.272645 0.241881 0.467123 1.0322 -0.154921 0.0879858 0.243291 0.0138907 0.586655 -0.840545 -0.0437444 0.684492 0.751863 -0.0528094 -0.156279 0.657124 -0.6522 -0.426564 0.176814 -0.966297 0.417873 0.543625 0.352077 0.953736 -0.0592743 0.112822 0.79195 0.68104 0.882574 0.455884 0.713903
Armor_Up! -0.177819 1.04875 -0.649708 -0.0130673 0.470867 0.793176 -0.626514 0.7855 0.316441 -0.0665084 0.213069 -0.00115799 -0.178746 -0.230675 -0.898443 -0.455485 0.107995 0.249133 -0.0505001 0.850882 0.165713 -0.579153 -0.595536 -0.600408 -0.516975 -0.632325 -0.355514 0.325941 0.412248 -0.311126 -0.287965 -0.102903 -0.543403 -0.173325 -1.00246 -0.346972 -0.793839 0.294436 0.373883 0.202916 -0.173854 0.485936 0.81993 1.13256 -0.0147575 -0.671174 -0.182207 -0.336856 0.183173 -0.238986 -0.0730023 0.839324 -0.61178 -0.5992 -0.0498217 0.294358 -0.0264286 0.502567 0.221806 -0.760576 -0.805044 0.254612 0.0137551 0.366537
Armored_Warhorse 0.396853 -0.361547 1.31236 1.14663 0.345328 0.851479 -0.464828 -1.07689 -0.482216 -0.539149 -1.1217 -0.291026 -1.11799 0.0334939 -0.305164 0.199848 0.206393 0.394161 0.420204 0.664655 0.757359 -1.8585 0.204145 -0.283657 -0.117087 -0.26123 -0.307911 0.494286 0.303552 0.246165 -0.0777613 -0.0182163 -1.15833 -0.0476576 -0.243534 0.479071 -1.11137 -0.0722796 0.0768445 0.097913 -0.221235 -0.173019 -0.250943 -0.30681 0.907627 1.64366 -0.70294 -0.730653 -0.592839 -0.384963 -0.776009 -0.89301 -0.0293423 0.666996 -0.575616 -0.0899791 -0.808044 0.030235 1.38152 0.71989 -0.264531 -0.120321 -1.38437 0.481707
Armorsmith -0.446269 1.37876 -0.701216 0.0316667 -0.0655765 -0.0210668 -0.456281 0.279224 -0.339232 -0.00723577 0.149824 0.144476 0.703168 -1.27373 -1.35248 -0.756127 -0.502042 -0.0193937 -0.536326 0.642106 0.336356 -0.687303 0.0285414 -0.467469 0.015508 -0.673897 -0.0471709 1.08656 0.177821 -0.0560126 0.00455873 -0.0334289 -0.397459 -0.0111027 -1.02128 -0.727012 -0.545029 0.171949 -0.277083 -0.521307 -0.241336 1.18199 0.753224 0.263843 -0.134407 -0.492601 -0.588818 -0.51135 0.0752939 -0.638659 0.378917 0.771703 -0.596674 -0.49042 0.72054 0.0739527 0.287444 -1.01314 0.817091 -0.510797 -0.380191 0.579623 0.238699 -0.876545
Army_of_the_Dead 0.950811 0.277927 0.427609 -0.814993 1.14174 0.973396 0.22927 -1.3748 -0.799922 -0.555965 0.750884 0.990454 0.0576347 0.00101734 0.0462376 -0.743744 0.0867143 1.11985 -0.968811 0.427721 0.779908 1.83902 -0.134189 1.30397 -0.49169 -1.07325 -0.621357 -0.00147434 0.535216 0.0288564 0.427629 1.39789 -0.502773 -0.0670522 1.71924 -1.20361 -0.204382 0.843172 -0.322511 -0.175747 1.16886 -0.0743272 0.3525 -0.690093 0.73967 -0.730199 1.19673 0.0350233 -0.919607 0.869409 -0.659693 1.00929 0.944399 -0.70807 0.0392572 0.0623463 -0.329131 -1.3443 -0.637889 0.3688 0.851354 -0.164105 -0.502613 -0.526469
Arrogant_Crusader 0.550216 0.418422 -0.599536 -1.43933 0.784097 0.855816 -0.178318 0.137655 0.666567 -0.993595 0.708743 0.556627 0.725004 -0.350065 -0.651893 0.313185 -0.123552 -0.153605 0.138051 1.87086 -0.373916 -0.136094 -0.462629 0.183639 -0.184042 -0.291444 0.917493 -0.111224 1.99292 0.993456 0.711975 -0.428248 0.888606 -0.5365 0.599879 0.559003 0.0383866 0.475214 -0.418939 -0.363753 0.569997 0.820565 0.76726 -0.67526 0.493072 -1.08107 0.706995 -0.305562 -0.528333 0.851223 0.509811 0.520424 0.31739 -0.330016 0.633985 0.191312 0.280526 0.210848 -0.674129 -0.014341 -0.496341 1.01851 1.23493 0.225249
Assassin's_Blade 0.942013 0.0680696 0.251565 -0.767097 -0.865788 0.0841254 -0.237384 -0.476611 1.19945 -0.257525 0.0874198 0.0442604 0.0776247 -0.34369 0.0838395 -0.550707 -1.1524 0.24677 0.288701 -0.114271 0.184851 -1.13577 0.332832 0.378082 -2.11439 0.242726 -0.543186 0.478779 -0.548254 -0.666532 -1.98964 0.7138 -0.591944 -0.0592088 -1.09028 -0.432469 0.507875 0.170464 1.38084 -0.0483808 0.180287 0.262502 0.593279 -0.152493 1.64713 0.27948 -0.619794 0.192723 1.27548 -0.652385 0.741312 -0.403614 0.221341 0.714823 0.163475 0.0771809 -0.404975 0.496737 -0.264686 -0.475155 0.492114 0.0132908 0.168897 0.229917
Assassinate -0.751049 0.282775 1.57721 -0.858342 -0.774019 -0.813107 -0.395143 -0.0971249 -0.118996 0.0591311 -0.106141 -0.475029 0.629208 -1.55484 -0.0956118 0.539304 0.170714 -0.546414 -0.0323418 0.0768276 -0.13359 -0.865056 0.482564 -0.0610194 -0.603093 -0.061044 -0.670759 0.533593 0.337903 -1.00094 -0.259511 -0.490775 0.436716 -0.624423 -1.5383 0.326225 0.277151 0.856118 1.01013 0.822074 -0.93575 0.394236 0.3574 0.125379 0.892018 -0.165758 -0.186567 0.662235 0.870299 -0.378046 0.473581 -0.528546 0.270432 1.02032 0.496021 -0.152721 0.621148 0.0981969 0.139021 -0.821331 -0.264907 -0.171884 -0.419463 1.18316
Astral_Communion -0.39608 -0.0944967 -0.715819 0.514337 0.610331 0.0803684 -0.724601 -0.335759 -1.26005 0.0858279 -0.838618 -1.40687 -0.0711802 -0.07137 -0.0189252 0.383293 -0.118822 -1.06195 -0.556707 0.648838 0.37134 -0.694657 -0.474475 1.85783 -1.67058 -0.421327 0.311467 -1.15107 -0.485549 -0.17725 -0.699645 -0.0750323 -0.729397 -0.797329 0.295375 -0.799047 0.274895 1.70252 -0.492927 0.905871 -0.409197 0.218016 -0.769295 1.59654 0.419042 0.200011 -0.225499 -0.422246 0.693608 -0.516039 1.01568 1.10704 -0.763355 1.5977 0.353786 0.957011 -0.389734 -0.896066 1.12803 -0.619355 -0.87782 -1.22183 -0.736937 1.21537
Atiesh -0.0170105 0.0412827 0.0203072 -0.000606872 -0.0267883 0.0427305 0.0179089 -0.0135071 0.0165381 0.0419599 0.0444668 -0.0256883 0.0328719 -0.0430017 0.025134 0.0409183 0.0148209 -0.00663342 0.00751662 -0.0424103 0.0226615 0.0435409 -0.0186013 -0.0321557 -0.0346988 0.0449484 -0.00113081 0.0220701 -0.00819596 -0.0348081 0.0295298 0.031731 0.0282133 -0.0425664 0.0220449 0.0418955 0.0446433 -0.0256671 -0.000972591 -0.0429757 0.0033265 0.0214198 -0.0109759 0.0410035 0.0276917 -0.0457742 -0.017506 0.000894308 0.0115632 -0.0462015 -0.0338022 0.0148829 -0.0295589 0.0326341 0.0152548 -0.045881 -0.0459121 0.0203547 0.0324985 0.0354515 0.0175504 0.0204372 0.00792717 -0.00479671
Auchenai_Soulpriest -0.200961 -0.34871 0.301249 0.280498 0.75143 -0.400159 0.0418054 0.150196 0.00800658 -0.292709 -1.1159 0.792692 -0.351493 -0.620945 -0.426226 -0.229399 0.245107 0.268485 -0.105773 -0.0698369 0.596236 0.292637 -0.951194 0.0335447 -0.852612 0.330857 0.502846 -0.930024 0.794169 -0.412572 -0.805185 -0.0460739 0.786761 0.0830265 -0.666157 -0.875575 0.322598 0.296016 1.37545 -0.169365 0.0569164 -0.312305 -0.844166 -0.225546 0.0127202 0.45462 0.266798 -0.819681 -0.0879924 0.219638 -0.419059 0.226711 -0.553418 -0.0179669 0.920944 -0.2661 -0.476429 -0.636064 0.359961 0.356288 0.373838 -0.14665 0.68347 0.720678
Auctionmaster_Beardo -0.704015 -1.49449 0.346158 -0.10646 0.0658065 0.374371 -0.426678 -0.0570247 -0.973909 -0.25538 0.376742 0.686221 2.47888 -1.53225 0.025136 0.627709 -0.266046 0.164003 0.669319 0.360559 0.583141 1.132 -0.899305 0.523625 -0.723543 0.758176 -0.528143 0.349199 1.44512 0.0246968 -0.381509 -0.594081 0.0716537 -0.621041 -0.56293 -0.328164 0.716301 1.35788 0.552067 0.313487 -0.434762 0.186037 0.55444 -0.0404063 -0.527586 0.482899 1.62904 -0.0951006 0.151758 0.667379 0.0884094 0.649572 -0.990337 0.574345 -1.66495 0.428047 1.01403 -0.865242 1.7776 0.31694 0.585065 -0.0611411 0.768636 0.629469
Avalanche 0.169731 1.02201 0.117253 -0.196478 -0.574894 -0.170524 -0.230093 -0.937008 -0.433349 0.0300133 -0.183354 0.452128 0.722163 0.140584 0.188296 0.248167 -0.110598 0.0773896 0.13775 -0.678517 0.749104 1.06714 -0.187983 0.0932042 0.159143 -0.00617089 0.0815047 0.400707 0.505683 0.579098 -0.689741 -0.204678 1.73919 0.703881 -0.990296 0.648736 1.02227 0.129088 -1.01404 -0.623499 -0.0112713 0.389006 -0.733645 0.535047 0.755186 -0.784982 -0.102203 0.40472 -0.268929 0.0189507 0.300692 -0.294501 -0.0622735 -0.209745 0.753318 0.0311876 -0.28675 -0.205633 -0.272459 -0.368772 -0.403507 -0.654209 -0.943265 -0.00668979
Avenge 0.0345431 -0.799055 -0.711573 0.177648 1.6085 0.514802 -1.06628 -0.671133 0.130941 -0.678551 1.35468 -1.09767 0.338739 -0.901729 -0.915054 -0.702732 0.229416 0.685815 -0.0436191 1.36873 -0.231812 -0.341156 -0.726787 1.57652 0.257281 -0.0122365 1.26761 -1.10858 -0.460982 0.0401172 0.509958 -0.409489 2.03192 -1.3516 -0.163029 -0.12922 0.329816 0.526451 0.930477 -0.882722 1.23618 0.736547 0.234413 -0.425382 0.365428 -0.378072 0.70508 0.474962 0.642282 0.605172 0.554677 1.13984 -0.0468387 0.117687 0.180773 0.373887 0.263859 0.56719 -0.41006 0.762826 -0.502819 1.05548 -0.763417 1.05492
Avenging_Wrath 0.101777 -1.52179 -0.19632 -0.204324 -0.647939 0.181798 -0.470171 -0.349097 -0.999271 0.412608 1.18756 -0.719116 0.686796 -0.355723 -0.0770773 0.0438371 -1.46571 0.887432 -0.13606 0.621736 0.444102 0.259249 -0.428344 1.07082 0.149997 0.980861 0.0202549 -0.629204 0.581688 -0.96227 0.726192 -0.549088 1.00459 -0.544836 -0.499604 0.0883462 0.465076 0.921158 0.427689 0.42327 0.620653 1.15972 0.147072 -0.645766 1.46056 -0.468539 0.0345208 0.175388 0.98362 -0.46468 1.04318 1.18811 0.325319 0.0923748 0.546419 -0.132325 -0.327994 1.44767 0.787971 -0.74648 -0.609438 -0.677231 0.709072 0.742987
Avian_Watcher 0.246427 -0.611244 0.445061 0.201202 -0.716319 -0.375304 -0.142084 -0.425962 -1.30713 1.0805 1.90134 -1.79835 -0.375704 -0.366745 -0.524023 0.273661 -0.551347 0.653754 0.370106 -0.0119155 -0.620005 1.02994 -0.304773 0.27121 0.494393 -0.908727 1.24027 -2.02565 0.254213 0.0437091 0.582338 0.279671 0.180659 0.138952 0.270664 -0.231492 -0.329797 -0.0751662 0.407722 -0.160779 -0.731524 0.21534 0.512267 0.240609 0.615139 -0.0299465 0.349676 -0.0160974 0.0881312 0.388836 -0.320158 0.873582 1.05518 -0.124573 -0.620714 -0.0795184 0.966882 0.298673 0.0992957 0.184418 0.235792 0.369262 -0.65497 -1.1123
Aviana -1.39224 -0.57068 -0.604144 0.116106 -0.0362731 0.883452 -1.30999 -0.723819 -0.146576 1.03646 -0.630473 -1.26218 0.244102 0.0415252 -0.0222012 0.129775 -0.643158 -0.085187 0.171298 -0.326871 0.876601 -0.777067 -0.128167 0.495447 -1.51061 -1.20737 -0.509918 0.024004 -0.430272 -0.76176 -0.505962 -0.403612 -0.740077 -0.282922 0.438165 -0.765492 -1.29219 0.63895 -0.464592 -0.00771687 -0.311399 -0.0367179 -1.13307 0.814679 0.624321 -0.506414 -0.642242 -0.241147 -0.107334 -1.54823 0.291667 0.284354 -0.373762 0.54923 0.145453 0.478146 0.477112 -0.992887 -0.20096 -0.814199 -0.11008 -0.560871 -0.37997 1.0846
Awaken_the_Makers -0.030604 0.75778 1.17325 0.20898 0.739728 -0.0196434 0.159926 0.0972056 -0.209067 -0.0903716 0.486647 0.462517 -0.0353601 -1.33563 -0.241348 0.325489 -0.0997599 0.620195 0.202891 1.06066 0.86864 0.649424 -0.279481 -0.0592929 0.294088 0.406713 -0.597266 -0.803526 0.168855 0.42861 1.17362 -0.76902 0.478951 0.333313 -0.486575 -0.0432154 0.656765 -0.618232 1.61467 -1.79705 1.44694 0.736691 -0.675451 0.0758898 1.03061 0.565202 0.748181 -0.117968 0.138108 1.00258 0.250848 -0.343546 -0.576508 -0.880349 0.640695 0.235504 0.131 -1.03149 0.603078 0.660842 0.0497516 0.441943 0.286073 0.719642
Axe_Flinger 0.00228911 0.325962 -0.106331 0.0602973 -0.175644 0.41696 -0.961774 0.831938 0.112602 0.251862 0.565487 0.529904 -0.555647 0.577506 0.3637 -0.311583 -0.0785212 0.0746239 0.545911 -0.353635 1.169 0.373346 0.800134 -0.661802 0.10951 -0.100538 0.0557641 0.874182 -0.462964 0.582505 -0.306325 0.230174 -1.20065 -0.733925 -0.134114 -0.82115 -0.602434 0.413402 1.87164 -1.05512 0.15146 1.14683 0.444908 -0.0303015 0.55821 -0.273035 -1.28313 -0.26182 2.0346 -1.24025 -1.175 2.03067 -0.258194 0.312905 0.254457 0.432594 -0.726678 0.0580583 0.297194 -1.33402 -1.68634 0.290344 0.223353 0.687036
Aya_Blackpaw -0.64708 -0.195884 -0.5503 -0.474418 -0.499922 0.0908527 0.824154 -1.25581 0.183797 -0.0715721 -1.10153 -0.263173 0.960124 0.857089 0.490984 0.150543 -0.215281 -0.115495 0.0604852 0.0871186 0.618297 -0.679753 0.0190453 0.059028 0.0269015 -0.310603 -0.0737512 0.49113 0.737425 -0.113516 0.190475 0.0457564 0.442885 0.254119 -0.406878 0.214889 -0.0151999 0.1068 -0.854647 -0.121899 -1.02386 0.446045 -0.29264 1.03936 0.875931 0.0845534 0.11057 0.569585 -0.318727 0.111833 -0.309549 -0.365289 0.748755 0.272187 0.0687144 -0.166299 -0.78319 -0.485374 -0.397624 0.436376 -0.84328 0.282483 -0.772084 0.456623
Azure_Drake -0.586285 -0.680254 -0.290346 0.270482 -0.339642 -0.217016 0.0156628 0.0907625 0.0318627 0.20902 -0.106065 -1.12583 -0.0243827 -0.0785654 -0.100979 -0.329164 -0.501269 0.691918 -0.323384 -0.388969 -0.589977 -0.221775 -0.0649358 -0.0328693 -0.1693 -0.238099 -0.684542 -0.323432 -0.326037 0.137988 -0.632252 0.955138 0.257171 0.365761 -0.334166 -0.351791 0.0192724 0.592488 0.0818021 0.144399 -0.757102 0.030881 -0.00697607 0.350047 0.181643 1.70946 -0.299944 0.596653 -0.134893 -0.600162 0.0361258 -0.221184 0.130401 -0.0324028 -0.222877 -0.545737 -0.538058 -0.10877 0.656248 0.109137 0.438683 0.13227 -0.361134 -0.0585153
Babbling_Book -0.290129 -0.464168 0.392562 -0.160352 0.381035 -0.839263 0.672089 -0.544207 -0.50352 0.638905 0.287493 -0.424036 0.560538 -0.372521 -0.0494173 -0.506029 0.0191718 0.126125 0.599605 0.732181 0.10732 -0.0252793 -0.468164 -0.443254 0.601401 -0.239296 0.888411 0.00199443 0.423924 0.40259 0.190731 -0.581651 -0.377512 0.206756 -0.00271663 -0.370495 0.462728 0.300842 0.519119 -0.256456 -0.104642 0.190885 -0.911674 0.494565 -0.548267 0.534202 0.629105 0.154831 -0.999386 -0.197356 -0.203681 0.637375 0.616473 -0.429309 0.521742 0.225259 0.237453 0.52243 0.0355238 -0.307926 0.287187 -0.0352826 -0.149896 -0.36116
Backroom_Bouncer 0.761047 0.871072 -0.402913 0.617106 0.628782 1.64573 -0.287822 -0.0800089 0.675375 0.579298 1.00616 -1.11247 -1.00891 -0.221981 0.349007 -0.0430879 -0.0711098 0.904963 -0.777179 1.31966 -0.457813 -0.247445 -1.00035 -0.322597 0.276428 -0.0297213 1.14026 0.666046 0.26179 -0.469892 1.38817 0.539818 -1.12728 0.522676 0.666825 0.503673 0.0889117 -0.232676 -0.398926 -0.108649 0.535276 0.516078 0.171625 0.226427 2.06064 -1.64099 -0.933047 0.571267 0.862718 0.367517 -0.819254 -0.208344 0.314439 -1.24781 0.125923 -0.257299 1.40283 -0.250244 -0.0699815 -0.137374 -0.924771 1.50012 0.196927 0.285591
Backstab -0.181342 0.412733 0.356326 -0.265884 -0.474342 -0.358008 -0.260614 -0.84561 -0.243611 -0.0848485 0.619959 -0.0288094 -0.0874934 -0.426403 0.408572 0.198358 -0.169003 -0.100402 -0.0460059 -0.362373 0.233224 0.117446 0.0395269 -0.18008 -0.416788 0.460442 -0.140406 0.245869 -0.0351683 0.00734079 -0.0895252 -0.067363 0.407235 0.415917 -0.841524 0.046427 0.22296 0.0715095 0.755718 0.142468 0.346843 0.173268 0.559501 0.688058 -0.403355 0.35661 -0.0564887 0.745421 0.283141 -0.408574 -0.214602 -0.1041 0.315225 0.185301 -0.00514815 -0.461084 -0.0308559 -0.258168 -0.59816 -0.424321 -0.373342 0.0957963 -0.304113 0.148756
Backstreet_Leper 0.236749 0.429271 0.395954 0.42056 -0.261069 -0.181135 0.995601 -0.36673 -0.129478 0.120631 1.36123 -0.440575 -0.165092 -0.333576 -0.638674 1.21501 -0.101029 -0.358644 -0.280885 -0.05181 0.726263 -1.16752 -0.721064 -0.0527822 0.199445 0.0896712 -0.229887 -0.386134 1.01453 -0.215187 0.387978 0.301901 -1.22009 0.00874507 0.00682866 -0.291077 0.62559 -0.584947 0.0755658 0.260206 -0.72697 -0.425458 -0.53515 -0.391628 0.208107 0.0599831 0.101363 -0.609774 0.858336 0.683088 1.25933 0.674723 -0.0206979 -0.120365 0.710936 -0.700153 0.119125 0.456591 0.343976 -0.118763 -0.294982 2.58917 2.27586 0.260927
Baine_Bloodhoof 0.524814 -0.923225 -0.278663 0.770368 -0.00774041 1.48246 -0.640763 -0.415901 -1.03412 1.4195 -0.685629 0.489899 0.561217 0.131986 -1.28544 0.853247 -1.23224 0.473412 0.111527 -0.0853586 -0.807743 -0.267063 -1.38675 0.706708 -0.123577 -0.543033 -0.168683 -1.19078 1.70477 0.70754 -0.246654 0.626731 0.885419 -1.03166 0.0176948 0.661517 1.31815 0.275476 -0.157226 -0.226287 -0.79837 0.778807 -0.293139 0.162848 1.15934 0.354433 0.538632 0.190477 -0.52916 0.236237 0.206737 -0.28947 -0.910515 -0.457368 -0.110199 0.252811 0.381375 0.268029 0.0592536 0.838604 -0.516352 -0.944484 -0.0258691 0.0510175
Ball_of_Spiders -0.447361 0.569395 1.19862 1.39176 -0.105408 0.175008 -1.30889 -1.3037 -0.394015 0.355273 0.450837 -1.26276 -0.363131 -1.81488 -0.110059 -0.265643 0.941878 0.525927 -0.188799 0.911338 0.390334 -1.81499 -0.77748 0.81995 -0.565315 -0.335433 0.19373 0.551687 0.161372 -0.891814 1.95099 0.0169399 0.159335 -1.66823 -0.468873 -0.386661 -1.30177 -0.800897 0.990132 -0.539804 0.404476 0.174894 -0.523075 -0.515433 -0.0886483 -1.05219 -0.944229 0.57104 0.889518 0.361958 0.334407 2.15907 0.376298 0.657159 -0.187268 -0.511484 0.522962 -1.11568 0.317899 0.715363 -0.614384 0.788426 -0.733534 -1.75805
Ballista_Shot -0.961757 -0.0930936 -1.19133 1.02499 0.587248 0.368643 -0.0692612 0.925809 -0.731033 -0.977522 -0.79152 -0.7317 -0.568892 0.368943 -1.16175 1.14604 0.0188169 0.162329 -0.382053 0.406858 0.32609 -1.46326 -0.0708814 0.161135 -1.09289 -1.03792 0.999413 -0.483726 -0.0140719 0.217064 0.20433 -0.102175 -0.69111 0.336592 0.666747 -0.304777 -1.3992 -0.630476 -0.744401 0.747357 -0.495615 -0.601868 0.376919 -0.565188 0.43903 0.936612 -1.06831 -0.473963 -0.369691 -0.233422 0.237275 0.997496 -0.62336 0.0012667 -0.782814 -0.5506 -0.790437 -0.356319 0.99798 -0.282278 0.0346384 -0.295639 0.396475 -0.390916
Bananas 0.069615 -0.362312 -0.26708 0.79846 1.36781 -0.332265 0.835213 -0.603417 -0.469345 -0.388891 0.695764 -0.847604 -0.454248 -0.73291 0.646161 -0.623521 0.628946 -0.38522 -0.158577 -0.0343081 1.26926 -0.520057 -0.160786 -0.250128 -0.694477 1.01487 -0.107492 0.057122 0.21609 0.13594 -1.23264 2.00647 -0.514001 -0.750703 -0.107445 -0.720241 0.97052 1.24869 -0.361318 0.330934 -0.128028 -0.779883 0.00837657 -0.310391 -0.496707 1.40026 0.0729409 0.422506 0.0182608 0.0501019 0.135952 0.993235 -0.00901721 -0.390339 -0.0926027 -1.54853 0.12884 -0.0444064 -0.746768 -0.0710876 -0.463112 -0.66991 0.16911 -0.339703
Bane_of_Doom -0.125263 0.663302 -0.112751 -1.7511 -0.0147476 0.182682 -0.0812825 0.683456 0.234025 -0.133769 0.606117 1.11288 1.56666 -0.805762 -1.2664 -0.451253 0.164252 0.1917 0.629701 -0.457526 0.244434 -0.738699 0.869924 1.17149 -0.315055 0.0781818 -0.335976 -0.366349 -0.0568866 -0.388662 0.608067 0.645786 -0.055625 -0.0529254 0.947132 0.273117 0.863141 0.177879 0.204781 -0.0322459 0.451208 0.733293 -0.582283 -0.0365011 0.0906224 0.386131 0.476883 0.338078 -0.333598 -0.169643 0.182257 0.928055 0.0435468 -0.431232 -0.626494 -0.548542 -0.161191 -0.133347 -0.336181 -0.407673 -0.122239 -0.755592 0.38806 0.103837
Barnabus_the_Stomper -0.473456 -0.742772 -0.183056 -0.144465 1.00565 0.0783638 -1.35804 -0.437179 -0.941903 0.0274154 -1.22348 -1.18278 -0.351342 0.395599 0.603826 -0.327424 -0.863251 -0.247373 0.307136 0.624235 0.664154 -0.567492 -0.692689 0.125916 -0.022912 -1.58005 1.91753 -0.30851 -0.359024 -1.00715 -0.794739 -0.447237 -0.434854 0.261731 1.09802 0.545246 -0.450826 0.968727 -0.526578 -0.668622 -0.47602 -1.01786 -1.3975 1.37047 1.0725 -0.721641 -1.03965 -0.851653 0.718333 -1.63035 -0.859268 0.0507442 -1.12951 1.02432 0.25642 -0.195756 0.514829 -0.0372623 -0.355912 -0.918442 -0.466602 -1.16422 -1.36284 0.525473
Barnes 0.0747523 -0.102183 -0.449888 0.257436 -0.127032 0.0235252 -0.162756 -0.307216 -0.248032 -0.283741 0.238754 0.109779 0.745532 0.0319233 -0.230938 -0.0227602 -0.371039 0.326205 -0.342942 -0.0766619 0.849002 0.114544 0.0783653 -0.414084 -0.626886 0.637663 -0.278692 -0.62062 0.290949 0.378166 0.085371 0.420263 -0.0815369 -0.112829 0.141777 -0.155327 0.766321 -0.10089 -0.311431 -0.0135072 -0.762545 0.286457 -0.106014 -0.100023 0.65025 0.558383 -0.166431 0.721106 0.44856 -0.0935055 -0.813534 0.235392 -0.428983 -0.105483 -0.517375 -0.760463 -0.224326 0.0813705 0.79725 0.803994 0.25505 -0.116727 -1.01843 0.00584887
Baron_Geddon 0.0811334 -0.209087 -0.894182 0.928917 0.271028 0.0993268 -0.0112881 0.184233 -0.914295 -0.695439 0.613517 -0.472282 -0.32145 -0.136611 0.301361 0.522239 0.0574454 -0.600788 0.0694913 0.476088 1.02669 0.240984 -0.667142 0.710109 0.058796 -0.145627 -0.192285 0.629041 0.377572 0.537366 0.332404 -0.126305 -0.364942 0.619929 0.269794 -0.0592048 0.293384 0.344771 0.0327023 0.225711 -0.706454 0.157903 0.455486 1.1745 -0.537427 -0.175411 0.480572 -0.116593 0.397574 0.48439 -0.643797 0.0736428 -0.545313 0.0749425 -0.319114 -0.810966 -0.127975 -0.103482 0.518512 -0.613369 -0.0423184 -0.909096 -0.132459 0.503983
Baron_Rivendare -1.02945 0.695876 0.824921 0.147089 -0.208114 0.313916 -0.219801 -0.43197 0.300214 0.253171 0.425239 0.177493 -0.254575 -0.103944 -0.586099 0.689533 0.241483 0.944941 -0.579047 -0.681495 1.62851 -0.0235436 -0.276306 -0.157956 0.577756 -0.510379 -0.16442 -0.562987 -0.282945 0.15696 -0.121872 0.0167368 0.0390778 -0.916785 -0.0746741 -0.0453289 0.425916 -0.586591 0.372468 -0.366951 -0.498238 0.534356 0.00142137 -0.834777 -0.738505 -0.29434 0.0570049 0.355892 0.777305 0.178095 0.121655 0.265122 -0.823784 -0.175444 -0.538283 -0.769048 0.436441 -0.118741 0.562354 1.05511 -0.145798 0.132122 0.0438261 -0.291711
Bash -0.69593 -0.216441 -0.537167 0.569598 0.457731 0.6001 -0.717612 0.526596 0.773585 -0.626667 0.778436 -0.252445 0.518271 0.218762 -0.551047 0.349962 -0.517784 0.435495 0.16995 1.2131 0.459959 -0.574368 -0.475559 -0.131104 -1.06455 -0.375588 -0.433396 -0.185105 0.0912632 0.240669 -0.0305157 -0.372585 -0.654353 0.344428 -1.1571 0.139933 -0.238679 -0.120104 1.0021 0.134507 -0.451578 0.499389 0.493267 0.538202 -0.548931 -0.00920827 0.103799 -0.806817 -0.170526 -0.279293 0.358358 1.06508 -0.86598 -0.0173473 -0.281659 0.383724 -0.743032 -0.109751 0.635366 -0.972932 0.0297752 -0.216384 0.284987 -0.391228
Battle_Axe -0.0415308 -0.00273119 0.00397941 -0.0299768 0.00794812 0.0351262 -0.00112393 -0.00647403 0.00148539 -0.033437 0.00442599 -0.0313649 -0.0156935 0.0259481 0.0233489 0.0120399 -0.00193451 -0.0424178 0.0100395 -0.0031358 -0.00600891 0.0343881 0.031846 -0.00657085 0.0244273 -0.0243351 0.0276068 0.014749 0.0487139 0.0207285 0.00204962 -0.0113555 -0.0469686 -0.0250862 0.0175289 -0.0198404 -0.0119437 -0.00157972 0.0150083 -0.00981021 -0.0346875 -0.0483461 -0.0468349 -0.00880879 -0.00517712 0.031683 -0.0081503 -0.0180672 0.012086 0.00744182 -0.0343606 -0.0236637 0.0365638 0.0131245 -0.0127272 0.0171218 -0.0410009 -0.0259978 -0.0257108 0.0399682 0.0188715 0.0335095 -0.0422734 0.00160462
Battle_Rage -0.592707 0.705293 -0.485463 -0.133621 0.0523521 0.180889 -1.18878 0.37588 -0.547181 -0.277137 -0.588574 0.365633 0.0681005 -0.454022 -0.260578 -0.0780908 -0.500287 -0.602651 0.240717 0.66352 0.198714 0.142151 -0.144353 -0.441352 -0.612458 -1.12701 0.041506 1.13212 -0.0316117 -0.128132 -0.216787 -0.0778272 -0.814067 0.070609 -1.1557 0.330851 -0.684717 1.1658 -0.0342377 -0.0783829 -0.197835 0.183057 0.479852 0.733219 -0.356464 -0.342307 -1.40194 -0.812513 0.325444 -0.244734 -0.360152 0.823585 -0.661958 -0.199207 1.16138 0.701885 0.340417 -0.594232 1.30177 -0.161844 -0.627912 0.672182 -0.0424511 0.471065
Bear_Trap 0.354821 0.0333821 0.762873 0.0537591 -0.698288 -0.188246 -0.670369 -1.0646 -0.148405 0.419958 0.814555 -0.976394 0.400419 -0.874182 -0.315663 -0.231734 0.37683 0.185252 -0.101872 0.705194 -0.440044 -1.174 -1.06156 0.194699 -1.30374 -0.677232 0.0407443 -0.733818 0.220675 -0.733051 0.885048 0.0135946 -0.771149 -1.04605 0.35431 -0.494519 -0.199898 -0.133087 0.152515 -0.0337118 -0.690176 0.0846312 0.0471593 -0.399248 0.854671 1.43998 0.151301 0.134772 1.05006 -0.872341 -0.157597 1.17276 0.631907 0.219614 -0.85695 0.310219 -1.38212 -0.317381 1.0782 -0.19317 0.0883735 -0.058427 -1.34075 -0.941135
Bearshark 0.128794 0.983449 0.394102 -0.958168 0.663683 -0.0027878 -0.16586 -1.96362 0.58287 -0.76689 0.762777 0.00850421 -1.40036 0.212558 0.0853908 -0.559104 0.217505 0.274522 0.515673 1.06139 -0.192234 -0.712995 -0.672985 0.287475 -1.31415 0.133306 1.20285 -0.076221 1.46831 -0.207773 1.36316 -0.234636 -0.0544227 -1.1484 0.111206 -0.81375 -0.379403 -0.413909 0.343014 -1.67992 -0.183976 -0.523851 -0.513881 -0.398492 0.486043 -0.482095 -0.109616 0.768121 -0.60234 0.139791 -0.0150574 1.08211 0.804691 -0.151245 -0.498602 0.715003 -0.822392 -0.421924 -0.924995 -0.0184495 -1.41109 -0.0476034 -1.47721 -0.844376
Beckoner_of_Evil -0.547256 -0.537763 -0.983442 -0.341787 0.243532 -0.217274 -0.486906 0.273374 0.0666223 -0.867133 0.0832029 0.182005 0.622609 -1.03681 -0.285168 0.672126 0.114356 -0.0436082 0.149928 -0.271725 0.499328 -0.873977 -0.436558 0.0437391 -0.519408 -0.929825 -0.566974 0.47099 0.357948 0.25364 -0.65932 -0.134656 0.390954 -0.612212 0.560448 -0.436556 -0.765006 -0.039072 0.780133 0.187335 -0.462366 -0.282751 -1.17281 -0.0186991 -0.706146 0.666749 -0.626467 -0.491317 0.923745 0.338582 -0.113345 -0.533729 -0.178764 -0.0752683 0.350389 -0.986022 0.328789 0.0519646 0.516325 -0.413839 0.00022239 -0.52814 0.709102 -0.160331
Beneath_the_Grounds -1.04655 -0.330729 0.580921 -0.103331 -0.124598 -0.547451 0.684135 -0.68302 -0.709175 0.338503 0.131192 -1.29772 0.176926 -0.890579 0.494799 0.160269 -0.346921 0.237623 0.747781 -0.228411 0.285444 -0.547664 0.165516 -0.0753891 -0.584267 1.11167 -0.320088 0.151401 0.11315 -0.0900738 -0.782798 0.713129 0.507493 -0.444929 -1.15323 0.0469844 0.134988 0.415414 0.624765 0.394039 0.374494 0.211146 0.630106 -0.12907 -0.39946 0.269843 -0.270794 0.394654 -0.104367 0.00357893 -0.0294109 0.41368 -0.613194 0.652208 -0.124778 -0.582229 0.171211 0.210141 4.38692e-05 -0.479326 0.000305638 0.710425 -0.99661 0.535341
Bestial_Wrath 0.66274 1.4946 1.23334 0.26225 -0.435734 -0.0513439 -1.41699 -1.83496 -1.31853 0.561795 0.230655 0.0333291 -0.520763 -0.0637237 1.25806 -0.48047 0.836949 0.372058 0.881773 0.50191 1.05684 0.427961 -0.501138 -0.150603 -0.840315 0.501181 -0.389087 -1.70798 0.436381 0.293037 1.68486 0.0895938 -0.795053 -0.0382449 -0.345766 -0.844478 -0.43293 -0.00892317 1.12983 -0.403627 0.360667 -0.656811 -0.965521 -0.219679 0.347957 -0.345837 -1.75681 0.700574 0.247498 -0.647733 0.106943 -0.262861 -0.0285494 -0.236971 -0.304419 0.205852 -0.34493 -1.81549 0.369199 0.780645 -0.891486 0.195183 -1.40206 -0.627591
Betrayal 0.791993 -0.127475 0.462359 -0.848906 -0.654573 -0.580846 -0.624266 -0.750715 0.0877609 -0.543324 0.733324 -0.483961 1.03443 -1.89587 -0.151458 -0.455126 -0.135804 -0.299335 0.406302 -0.68796 -0.0430999 -0.212285 0.277156 0.860808 -1.10188 0.409325 -0.97009 0.0642451 0.812062 -0.743927 0.163909 -0.249832 0.194755 -0.197319 -0.69423 0.711462 -0.0216591 0.672781 0.634681 0.167287 0.220944 -0.0624638 0.28308 0.0531452 -0.416223 0.11237 0.106172 0.0250804 0.989714 -1.10389 -0.0474921 0.441182 0.150147 0.774479 0.462689 -0.126392 0.729514 0.0421313 -0.730687 -0.0354826 0.252584 0.475704 0.574329 1.28856
Big_Bad_Wolf 0.134352 0.389964 -0.383505 1.25044 0.654099 -0.163555 0.497572 -0.086377 -0.334429 0.233121 -0.0244353 0.0698405 -1.7774 -0.0365093 0.330255 0.382302 0.182083 0.0642527 -0.24419 2.10868 0.352705 -0.37285 -0.275151 -0.728841 -0.582698 -1.17099 1.78008 -1.66685 0.193995 1.4629 0.80114 0.255235 -0.462222 0.128284 0.535477 -1.95007 -0.535471 -0.0256171 1.82533 0.248103 0.0510109 -0.734207 0.297204 -0.502822 0.182818 1.68562 -0.763167 1.03062 -0.0546219 -0.950664 -0.465742 1.27135 1.38255 -0.949467 -0.112776 0.553595 -0.512796 -0.140661 0.225977 0.086356 -0.142361 0.356817 -1.27135 -0.708965
Big_Game_Hunter -1.14237 -1.18349 -0.779386 0.138356 0.2263 0.0205331 0.0670531 -0.459719 -0.146086 -1.50026 -0.0354026 0.937063 0.754809 0.486735 -0.287344 0.554567 -0.859171 0.957961 -0.31621 -0.268699 -0.0521179 0.0135462 0.264567 0.604877 -0.520345 -1.18088 -0.0577487 0.511577 0.660441 -0.52474 -0.0557486 0.501426 -0.715538 0.086859 0.145664 -0.263028 0.177417 -0.22589 0.118429 0.404537 -0.838002 -0.398011 0.492305 -0.145108 -1.00499 0.0844563 0.868934 -0.0397616 0.337887 0.392182 -0.689155 0.821661 -0.0261093 0.817562 0.460537 -0.266782 -0.526896 -0.793368 -0.413225 0.214519 0.000537454 -0.428282 0.379514 0.415545
Big-Time_Racketeer 0.818463 -0.121447 0.173477 -0.880676 0.828289 0.217021 -0.154925 -0.347166 0.349569 -0.140052 -0.401639 -0.325439 0.198392 0.596836 -0.415037 0.406927 -0.628926 -0.153333 0.598026 -0.59002 0.143722 -0.14983 -0.615199 0.357462 -0.107827 -0.147913 -0.145569 0.20422 0.346199 0.155136 -0.716175 0.256222 -0.0792313 0.15618 -0.0593433 0.414551 0.702119 1.15017 -0.731922 0.25405 -0.303667 0.293434 -0.55969 0.202989 0.272888 0.675973 0.636073 -0.889479 -0.57072 -0.345007 -0.0324622 -0.951892 0.345815 -0.0335701 0.0244156 -1.35938 -0.121522 0.217133 0.1049 0.080345 0.739521 -0.708516 0.050553 -0.15153
Bilefin_Tidehunter 0.599803 -0.0627212 -0.170284 -0.107025 0.159576 0.530977 -0.286929 0.055507 0.312724 -0.380744 1.00158 -0.43453 1.39934 -0.454603 0.196752 -0.0232993 -0.00549768 0.241578 0.0331193 -0.27557 0.230511 -0.900723 0.62677 0.867663 -0.0850916 0.35764 2.43006 -0.154592 0.866991 -0.216935 -0.812623 -0.125048 -0.0700816 -0.31488 -0.0376872 0.155031 -0.0377433 0.0837632 -0.254903 0.0150046 0.635062 -0.286919 0.717033 0.323276 -0.299954 0.499253 -0.018191 0.100925 0.435493 -0.237922 -0.169062 -0.73266 0.344715 -0.923947 -0.190634 -0.522453 0.878477 -0.300058 -0.986686 -0.169222 -0.537644 0.0450147 0.387462 1.00541
Binding_Heal 0.671117 0.787778 0.681159 -0.967422 -0.122432 0.416441 0.521038 -0.742119 -0.744791 0.416088 -0.268908 0.36157 0.395263 0.263978 0.473768 -0.675455 0.224961 -0.413724 0.889171 0.555888 0.42807 0.214143 -0.377313 -0.171219 -0.353194 0.182363 -0.250339 -0.920692 0.242154 0.11929 -0.640023 0.196625 -0.223628 0.00743742 -0.582317 -0.0143328 0.427667 0.187611 0.413969 -0.604207 -0.371032 0.363605 -0.274597 0.252452 0.0688006 -0.434036 0.304955 -0.138421 0.37532 0.0550774 -0.788748 -0.73168 -0.49225 -0.572534 -0.396211 -0.0879426 0.0225106 -0.396416 0.224533 -0.170543 0.516488 0.105109 -0.127421 0.999665
Bite -0.63377 -1.02554 0.76459 -0.40592 -0.233711 0.598332 -0.0716215 -0.356919 0.243556 0.388646 0.131581 -0.793942 -0.195743 -0.202519 0.0562351 -0.976542 -0.500034 -0.549072 -0.587352 0.429193 -0.269503 -0.569486 0.267782 1.0949 -1.99233 -0.694764 0.251634 1.41316 -0.653708 -0.426791 -0.149762 -0.226058 0.238979 -0.237887 0.978306 -0.204482 0.416114 -0.711647 -0.0809438 0.827748 0.161425 0.47144 -1.16759 0.232096 0.568112 0.506738 -1.40071 0.478123 0.0788497 -0.347124 -0.360037 0.61833 0.0654087 0.721974 0.513808 -0.317167 -0.436526 -0.733017 -0.628123 -1.7901 -0.246007 -0.0936121 -0.381703 1.615
Biteweed 0.639959 0.800773 -0.0870925 -0.843916 -0.135452 0.297073 -0.201674 -0.34154 -0.403406 0.0469816 0.0875958 -0.580658 0.0668834 -0.173766 1.28285 -0.308779 0.336548 0.0562599 -0.0113423 0.403356 0.512541 0.878753 -0.370725 -0.0066562 -0.477032 -0.00905608 -0.681184 -0.509233 0.407732 -0.0257285 0.352705 -0.434638 -0.30659 -0.23431 0.831393 -0.414769 0.972148 0.500604 -0.0311806 -0.00266976 -0.130589 0.220536 0.0864207 -0.439142 0.204926 -0.419512 0.00546726 -0.0600143 -0.663911 -0.594548 0.337878 0.407285 0.173456 -0.808067 -0.354999 0.336403 0.32411 -0.485475 0.659837 -0.931532 -0.120541 0.467252 0.768628 0.254008
Bittertide_Hydra 0.258177 1.47592 -0.0241646 -0.237937 1.09983 0.388923 -0.533425 -0.263498 -0.199871 -0.670745 -0.264561 0.4789 -0.936055 0.473113 0.234527 -0.138685 0.810312 0.0142861 0.342808 0.954448 -0.138241 -0.453567 0.90485 0.238902 0.562946 -0.205742 0.000909997 -0.197329 0.711028 0.938435 0.288585 0.759946 0.683843 -0.0810584 0.507207 -0.608677 -0.86426 -0.300041 -0.490516 -1.15329 -0.571426 -0.133358 -0.323711 0.0922266 -0.323514 0.738357 0.185668 0.310772 0.655207 -0.0607367 -0.801228 0.37403 0.689017 -0.931975 -0.164151 0.103182 -0.461042 0.0527412 -1.52597 -0.272362 0.360173 0.227036 -0.125913 -0.274107
Black_Bishop -0.0340007 -0.0192929 0.00260799 -0.00266613 -0.0444996 -0.0463485 -0.0434972 -0.0459158 0.0149599 0.0296299 -0.0226176 -0.0136355 0.00223951 -0.0464351 0.0153591 0.0468172 -0.000792813 0.0135665 -0.0355509 0.015349 -0.00419232 -0.0178588 0.0177068 0.0302965 0.0170179 0.010441 -0.00679805 0.032488 0.00595362 -0.0102747 -0.0434936 0.00193008 -0.0410923 -0.00765089 -0.00916028 0.0330049 -0.0270049 0.00612485 0.00240847 0.00447588 -0.0194845 0.0249804 0.0248821 -0.0223411 0.0335003 -0.0305959 -0.0207298 -0.025322 -0.0185769 -0.0236772 -0.0385594 0.0384567 0.0098026 0.0407164 -0.0318027 -0.0222153 0.0196458 -0.0479358 0.0068406 0.011113 0.0365194 -0.0359019 0.0475675 0.0267435
Black_Knight -0.002967 -0.0383824 -0.0242461 -0.00347064 0.0423016 0.0206568 -0.00516032 -0.0119141 0.0143799 -0.0374655 0.0237233 0.0277639 0.0389665 0.00285722 -0.00388502 -0.0416146 -0.0208959 0.000184726 0.0442086 0.0118172 0.0101617 -0.00366569 0.0298831 -0.0331178 -0.030091 -0.0371855 -0.0312745 -0.045248 -0.0441326 0.0402919 0.0167575 -0.00381001 -0.000524737 -0.0253052 0.00576649 -0.0200528 0.0340902 -0.0110273 0.024832 -0.0450969 -0.0324754 0.0035492 0.00396509 -0.0311993 0.0306173 0.0362662 -0.00507774 0.0373185 -0.0171637 0.0252512 0.016196 -0.018363 -0.0495293 0.0159498 -0.000398446 -0.0147101 -0.0332261 -0.039164 -0.0382476 -0.0140809 0.0408967 -0.0389849 -0.0230536 -0.0415103
Black_Pawn 0.0149739 0.0323398 0.0271079 -0.00941614 0.0137181 0.0327987 0.0386584 -0.0494982 -0.00676539 0.0442575 0.0377661 0.0372289 0.0236293 -0.0485151 -0.00450438 -0.0218127 0.0476678 0.0253295 -0.0127498 -0.0426945 0.0319391 -0.043162 -0.0476096 -0.0423588 0.0219624 -0.00610502 0.00267081 -0.0307125 -0.0061836 -0.00233259 -0.0488689 -0.0134201 0.0370925 0.00843924 0.0414581 0.0484961 -0.0372209 -0.0165073 0.0397999 0.00240464 0.00555 0.00356082 0.0259427 0.0317067 0.0294969 0.0172095 -0.0347096 0.0298195 0.0393738 0.00347589 -0.0376382 0.00934362 -0.0174751 -0.0105443 0.0155302 -0.010125 -0.0121445 0.00272311 -0.0222112 -0.00432731 0.020608 0.000972211 -0.0283751 -0.0261781
Black_Queen 0.0234583 0.0250004 0.0383723 0.0123365 -0.00782776 -0.000626065 -0.0284297 -0.020304 0.0308475 -0.00673173 -0.0447212 -0.027217 0.0231403 -0.0127578 0.0375983 0.0215999 0.00295977 0.0462266 0.023246 -0.0280359 -0.00663573 0.0246075 -0.0299594 -0.00880618 -0.0482502 -0.0149377 -0.0454439 -0.0272344 -0.0198942 -0.035945 0.0425482 0.035936 -0.0322113 -0.0197255 -0.0458384 -0.0114889 0.0437391 0.0373382 -0.0273082 -0.0310568 -0.0294391 -0.0262106 0.0413406 -0.0266934 0.0308065 0.0191966 -0.0156247 0.0267832 0.0101747 -0.00873867 -0.0243244 -0.006434 0.00979674 0.0480258 -0.041481 -0.033025 -0.00696794 0.00855549 -0.00419686 -0.0129176 0.0149738 -0.0325272 -0.0442292 -0.0183244
Black_Rook -0.0435416 0.0389227 -0.0184265 0.0316021 -0.0198104 -0.0204715 0.0156274 0.0159364 -0.0277841 0.0371541 -0.0181833 0.038691 -0.00457213 0.0346254 -0.038801 -0.0399747 0.000419237 0.0262831 0.0437505 -0.0478821 -0.0346159 -0.0300964 0.0291507 -0.0493425 -0.0147427 -0.0408369 0.0275277 -0.0352746 0.00536927 -0.0198571 0.0487624 0.0496168 -0.0420957 0.0459979 -0.0220489 0.0457827 0.0248417 0.0247066 0.00856358 -0.00794123 -0.0251984 0.0464063 0.0148781 -0.0495866 0.0337505 0.0444599 0.0190007 -0.00150903 -0.0497085 -0.00761905 -0.0436304 0.0121247 0.000590779 0.00424006 -0.0405359 -0.0149416 0.0088718 0.025744 -0.0248915 0.00680649 -0.0410669 -0.0273645 0.0162866 0.0382123
